{"learner":{"attributes":{},"feature_names":["claim_number","year_of_born","gender","email_or_tel_available","safety_rating","annual_income","high_education_ind","address_change_ind","living_status","zip_code","claim_day_of_week","accident_site","past_num_of_claims","witness_present_ind","liab_prct","channel","policy_report_filed_ind","claim_est_payout","vehicle_made_year","vehicle_category","vehicle_price","vehicle_color","vehicle_weight","age_of_DL","accident_type","in_network_bodyshop","vehicle_mileage","claim_year","claim_month","claim_day","claim_quarter","claim_dayofweek","is_weekend","is_monday","is_friday","is_q4","season","witness_binary","police_binary","multicar_binary","highrisk_site_binary","liab_x_witness","liab_x_police","liab_x_multicar","liab_x_highrisk_site","liab_x_evidence","liab_x_payout","liab_x_mileage","witness_x_police","witness_x_multicar","police_x_multicar","multicar_x_highrisk","weekend_highway","witness_police_multicar","liab_prct_squared","liab_prct_cubed","liab_prct_sqrt","liab_prct_log","liab_inverse","liab_inverse_squared","log_claim_est_payout","log_vehicle_mileage","log_vehicle_price","log_annual_income","sqrt_vehicle_mileage","is_multi_vehicle_clear","is_multi_vehicle_unclear","is_single_car","has_recovery_target","recovery_case_clarity","liab_under_10","liab_10_to_15","liab_15_to_20","liab_20_to_25","liab_25_to_30","liab_30_to_35","liab_35_to_40","liab_40_to_50","liab_over_50","not_at_fault","minimal_fault","low_fault","shared_fault","high_fault","witness_present","police_report","evidence_none","evidence_weak","evidence_strong","evidence_very_strong","evidence_score","high_risk_site","parking_accident","unknown_site","highway_accident","local_accident","driver_age","young_driver","prime_driver","middle_age_driver","senior_driver","driving_experience","novice_driver","experienced_driver","veteran_driver","experience_x_safety","driver_age_x_safety","luxury_vehicle","mid_price_vehicle","economy_vehicle","heavy_vehicle","light_vehicle","medium_weight","is_large_vehicle","is_compact_vehicle","is_medium_vehicle","high_mileage","low_mileage","very_high_mileage","medium_mileage","frequent_claimer","moderate_claimer","first_time_claimer","very_frequent_claimer","large_payout","medium_payout","small_payout","very_large_payout","safety_x_prior_claims","mileage_x_claims","payout_to_price_ratio","severe_damage","moderate_damage","minor_damage","income_to_vehicle_price","can_afford_vehicle","expensive_for_income","claims_per_year_driving","claim_frequency_high","safety_to_liability","payout_to_income","mileage_to_price","weight_to_price","high_income","mid_income","low_income","very_high_income","high_safety_rating","low_safety_rating","very_high_safety","medium_safety","contact_available","has_education","recent_move","home_owner","renter","female","via_broker","via_online","via_phone","in_network_repair","out_network_repair","recovery_feasibility_score","perfect_case","strong_case","good_case","weak_case","no_case","high_value_opportunity","slam_dunk_case","low_liab_high_payout","clear_fault_case","high_mileage_low_fault","claim_early_in_year","claim_end_of_year","weekend_parking","winter_claim_high_payout","mileage_x_weight","mileage_per_dollar","payout_to_weight","unstable_policyholder","financial_stress_risk","young_driver_highway","senior_driver_parking","low_liab_weak_evidence","high_liab_strong_evidence","case_confidence_score","claim_est_payout_z","vehicle_mileage_z","annual_income_z","liab_percentile","payout_percentile","case_strength_index","financial_exposure_index","behavioral_risk_index","middle_income"],"feature_types":["int","float","int","float","float","float","float","float","int","float","int","int","float","int","float","int","float","float","float","int","float","int","float","float","int","int","float","int","int","int","int","int","int","int","int","int","int","int","float","int","int","float","float","float","float","float","float","float","float","int","float","int","int","float","float","float","float","float","float","float","float","float","float","float","float","int","int","int","int","int","int","int","int","int","int","int","int","int","int","int","int","int","int","int","int","float","int","int","int","int","float","int","int","int","int","int","float","int","int","int","int","float","int","int","int","float","float","int","int","int","int","int","int","int","int","int","int","int","int","int","int","int","int","int","int","int","int","int","float","float","float","int","int","int","float","int","int","float","int","float","float","float","float","int","int","int","int","int","int","int","int","float","float","float","int","int","int","int","int","int","int","int","float","int","int","int","int","int","int","int","int","int","int","int","int","int","int","float","float","float","int","int","int","int","int","int","float","float","float","float","int","int","float","float","float","int"],"gradient_booster":{"model":{"cats":{"enc":[],"feature_segments":[],"sorted_idx":[]},"gbtree_model_param":{"num_parallel_tree":"1","num_trees":"100"},"iteration_indptr":[0,1,2,3,4,5,6,7,8,9,10,11,12,13,14,15,16,17,18,19,20,21,22,23,24,25,26,27,28,29,30,31,32,33,34,35,36,37,38,39,40,41,42,43,44,45,46,47,48,49,50,51,52,53,54,55,56,57,58,59,60,61,62,63,64,65,66,67,68,69,70,71,72,73,74,75,76,77,78,79,80,81,82,83,84,85,86,87,88,89,90,91,92,93,94,95,96,97,98,99,100],"tree_info":[0,0,0,0,0,0,0,0,0,0,0,0,0,0,0,0,0,0,0,0,0,0,0,0,0,0,0,0,0,0,0,0,0,0,0,0,0,0,0,0,0,0,0,0,0,0,0,0,0,0,0,0,0,0,0,0,0,0,0,0,0,0,0,0,0,0,0,0,0,0,0,0,0,0,0,0,0,0,0,0,0,0,0,0,0,0,0,0,0,0,0,0,0,0,0,0,0,0,0,0],"trees":[{"base_weights":[1.4666703E-2,8.6662066E-1,-7.775919E-1,3.9602208E-1,1.1277269E0,-4.1990754E-1,-1.7092373E0,-5.258538E-2,6.793892E-1,8.373928E-1,1.2772224E0,-1.2392429E0,8.414247E-2,-2.0035138E0,-1.2286392E0,-1.3795703E-2,5.9321956E-3,2.6603922E-2,3.396586E-3,3.1220887E-2,1.4309335E-2,3.9836973E-2,2.0597238E-2,-4.8438348E-2,-2.543202E-2,-1.5714606E-2,1.3590094E-2,-6.0523048E-2,1.2097441E-2,-1.759635E-2,-4.4979054E-2],"categories":[],"categories_nodes":[],"categories_segments":[],"categories_sizes":[],"default_left":[0,0,0,0,0,0,0,0,0,0,0,0,0,1,0,0,0,0,0,0,0,0,0,0,0,0,0,0,0,0,0],"id":0,"left_children":[1,3,5,7,9,11,13,15,17,19,21,23,25,27,29,-1,-1,-1,-1,-1,-1,-1,-1,-1,-1,-1,-1,-1,-1,-1,-1],"loss_changes":[2.2553862E3,1.968645E2,5.75396E2,7.35605E1,4.2932495E1,5.1787616E2,6.3732178E1,2.3032398E1,4.1115036E1,2.4995468E1,1.8410645E1,6.765704E1,1.7433572E2,1.081543E1,3.0539093E1,0E0,0E0,0E0,0E0,0E0,0E0,0E0,0E0,0E0,0E0,0E0,0E0,0E0,0E0,0E0,0E0],"parents":[2147483647,0,0,1,1,2,2,3,3,4,4,5,5,6,6,7,7,8,8,9,9,10,10,11,11,12,12,13,13,14,14],"right_children":[2,4,6,8,10,12,14,16,18,20,22,24,26,28,30,-1,-1,-1,-1,-1,-1,-1,-1,-1,-1,-1,-1,-1,-1,-1,-1],"split_conditions":[1E0,8E0,4.6E1,1E0,1E0,4.7217903E-1,5.3E-1,1.6191201E4,3.6E1,3.4E1,7.5E1,1.9E1,1.2E1,2E1,2.011E4,-1.3795703E-2,5.9321956E-3,2.6603922E-2,3.396586E-3,3.1220887E-2,1.4309335E-2,3.9836973E-2,2.0597238E-2,-4.8438348E-2,-2.543202E-2,-1.5714606E-2,1.3590094E-2,-6.0523048E-2,1.2097441E-2,-1.759635E-2,-4.4979054E-2],"split_indices":[166,44,14,49,49,162,192,20,14,14,45,44,44,137,9,0,0,0,0,0,0,0,0,0,0,0,0,0,0,0,0],"split_type":[0,0,0,0,0,0,0,0,0,0,0,0,0,0,0,0,0,0,0,0,0,0,0,0,0,0,0,0,0,0,0],"sum_hessian":[3.3387998E3,1.6088911E3,1.7299087E3,5.7567334E2,1.0332178E3,1.2515879E3,4.7832086E2,2.2291373E2,3.527596E2,3.5474673E2,6.7847107E2,4.7617038E2,7.754175E2,2.937328E2,1.8458809E2,8.484451E1,1.380692E2,2.574141E2,9.53455E1,2.2495691E2,1.2978983E2,6.234677E2,5.5003334E1,2.409531E2,2.3521727E2,2.9230072E2,4.831168E2,2.9246204E2,1.2707537E0,5.6166084E1,1.2842201E2],"tree_param":{"num_deleted":"0","num_feature":"196","num_nodes":"31","size_leaf_vector":"1"}},{"base_weights":[-3.0666993E-3,8.333325E-1,-7.500253E-1,1.0788009E0,4.026994E-1,-4.3184757E-1,-1.764229E0,7.6797384E-1,1.2406256E0,-1.1893828E-1,7.293519E-1,3.5762478E-2,-1.0805535E0,-1.9985766E0,-1.1381049E0,2.5854222E-2,-3.3400517E-3,3.9510455E-2,2.8332513E-2,1.8847316E-3,-2.5517395E-2,2.7734868E-2,6.8840673E-3,1.2091636E-2,-1.4527709E-2,-1.9813405E-2,-4.7689825E-2,-6.036012E-2,5.720574E-3,-1.01018185E-2,-4.6352305E-2],"categories":[],"categories_nodes":[],"categories_segments":[],"categories_sizes":[],"default_left":[0,0,0,0,0,0,0,0,0,0,0,0,0,1,0,0,0,0,0,0,0,0,0,0,0,0,0,0,0,0,0],"id":1,"left_children":[1,3,5,7,9,11,13,15,17,19,21,23,25,27,29,-1,-1,-1,-1,-1,-1,-1,-1,-1,-1,-1,-1,-1,-1,-1,-1],"loss_changes":[2.1016685E3,1.6677417E2,5.719075E2,4.8990845E1,9.8869125E1,4.112741E2,5.8349854E1,2.906836E1,1.2639709E1,3.0000599E1,3.4113663E1,1.5067818E2,1.1937836E2,9.455078E0,3.750554E1,0E0,0E0,0E0,0E0,0E0,0E0,0E0,0E0,0E0,0E0,0E0,0E0,0E0,0E0,0E0,0E0],"parents":[2147483647,0,0,1,1,2,2,3,3,4,4,5,5,6,6,7,7,8,8,9,9,10,10,11,11,12,12,13,13,14,14],"right_children":[2,4,6,8,10,12,14,16,18,20,22,24,26,28,30,-1,-1,-1,-1,-1,-1,-1,-1,-1,-1,-1,-1,-1,-1,-1,-1],"split_conditions":[1E0,2E0,4.7E1,1.7E1,1.6E1,2E0,1E0,3.9E1,3.7E1,1.4747795E0,3.6E1,2E0,2E0,6E1,2.011E4,2.5854222E-2,-3.3400517E-3,3.9510455E-2,2.8332513E-2,1.8847316E-3,-2.5517395E-2,2.7734868E-2,6.8840673E-3,1.2091636E-2,-1.4527709E-2,-1.9813405E-2,-4.7689825E-2,-6.036012E-2,5.720574E-3,-1.01018185E-2,-4.6352305E-2],"split_indices":[166,11,14,41,41,24,49,14,14,142,14,11,11,101,9,0,0,0,0,0,0,0,0,0,0,0,0,0,0,0,0],"split_type":[0,0,0,0,0,0,0,0,0,0,0,0,0,0,0,0,0,0,0,0,0,0,0,0,0,0,0,0,0,0,0],"sum_hessian":[3.3613809E3,1.5855128E3,1.775868E3,1.00821344E3,5.772994E2,1.3534147E3,4.2245334E2,3.4834344E2,6.5987E2,2.2231322E2,3.5498618E2,7.8697504E2,5.664397E2,3.0498706E2,1.174663E2,3.1516003E2,3.3183388E1,5.2113367E2,1.3873634E2,1.7873936E2,4.3573864E1,2.5427805E2,1.0070812E2,4.617006E2,3.252744E2,3.1203006E2,2.5440964E2,3.034645E2,1.5225278E0,4.05492E1,7.691711E1],"tree_param":{"num_deleted":"0","num_feature":"196","num_nodes":"31","size_leaf_vector":"1"}},{"base_weights":[1.7547702E-3,8.293695E-1,-7.481721E-1,1.0708088E0,4.0193373E-1,-4.8175573E-1,-1.7795037E0,7.596771E-1,1.2316217E0,-9.321781E-2,6.915646E-1,-9.1516995E-1,3.432864E-1,-1.862365E0,-1.1313161E0,2.511258E-2,3.1157932E-4,3.9584767E-2,2.674394E-2,9.55189E-3,-1.1310974E-2,2.8471394E-2,5.1419255E-3,-4.3220975E-2,-1.7670907E-2,1.821556E-2,-6.8184556E-3,-0E0,-5.659403E-2,-3.2669564E-3,-4.0702444E-2],"categories":[],"categories_nodes":[],"categories_segments":[],"categories_sizes":[],"default_left":[0,0,0,0,0,0,0,0,0,0,0,0,0,0,0,0,0,0,0,0,0,0,0,0,0,0,0,0,0,0,0],"id":2,"left_children":[1,3,5,7,9,11,13,15,17,19,21,23,25,27,29,-1,-1,-1,-1,-1,-1,-1,-1,-1,-1,-1,-1,-1,-1,-1,-1],"loss_changes":[2.0768076E3,1.6321777E2,4.8056323E2,4.9044556E1,8.295484E1,5.0009912E2,1.5745361E1,1.997844E1,1.7695251E1,2.5115381E1,4.822792E1,1.5535657E2,7.2760315E1,1.4171997E1,9.647949E0,0E0,0E0,0E0,0E0,0E0,0E0,0E0,0E0,0E0,0E0,0E0,0E0,0E0,0E0,0E0,0E0],"parents":[2147483647,0,0,1,1,2,2,3,3,4,4,5,5,6,6,7,7,8,8,9,9,10,10,11,11,12,12,13,13,14,14],"right_children":[2,4,6,8,10,12,14,16,18,20,22,24,26,28,30,-1,-1,-1,-1,-1,-1,-1,-1,-1,-1,-1,-1,-1,-1,-1,-1],"split_conditions":[1E0,2E0,4.8E1,1E1,1.6E1,1E0,9.8E-1,3.9E1,3.7E1,3.1E1,3.5E1,4.1E-1,4.3E1,2.8666666E0,4.844745E4,2.511258E-2,3.1157932E-4,3.9584767E-2,2.674394E-2,9.55189E-3,-1.1310974E-2,2.8471394E-2,5.1419255E-3,-4.3220975E-2,-1.7670907E-2,1.821556E-2,-6.8184556E-3,-0E0,-5.659403E-2,-3.2669564E-3,-4.0702444E-2],"split_indices":[166,11,14,41,41,51,192,14,14,14,14,162,14,128,46,0,0,0,0,0,0,0,0,0,0,0,0,0,0,0,0],"split_type":[0,0,0,0,0,0,0,0,0,0,0,0,0,0,0,0,0,0,0,0,0,0,0,0,0,0,0,0,0,0,0],"sum_hessian":[3.343505E3,1.5895262E3,1.7539788E3,1.0141012E3,5.75425E2,1.3956445E3,3.5833432E2,3.486841E2,6.6541705E2,2.1235922E2,3.6306577E2,9.1509796E2,4.8054654E2,3.1516528E2,4.3169033E1,3.1570258E2,3.298156E1,5.259374E2,1.3947969E2,8.620974E1,1.2614949E2,2.4191458E2,1.21151184E2,3.4878314E2,5.663148E2,3.289121E2,1.5163443E2,3.8049307E0,3.1136035E2,8.348182E0,3.482085E1],"tree_param":{"num_deleted":"0","num_feature":"196","num_nodes":"31","size_leaf_vector":"1"}},{"base_weights":[-7.441904E-3,3.9466438E-1,-1.2011003E0,-1.0938385E0,6.69096E-1,-8.0176985E-1,-1.7275386E0,-1.4642653E0,-7.194745E-1,1.7984174E-1,9.294917E-1,-1.1551969E0,-0E0,-1.9094054E0,-1.2218627E0,-3.5048008E-2,-5.6334548E-2,-1.329073E-2,-3.7864365E-2,-7.001025E-3,1.79519E-2,1.9861262E-2,3.575501E-2,-5.5614725E-2,-2.8960261E-2,1.6010294E-2,-2.5063328E-2,-5.7745595E-2,2.1074502E-2,-2.2357795E-3,-4.3304127E-2],"categories":[],"categories_nodes":[],"categories_segments":[],"categories_sizes":[],"default_left":[0,0,0,0,0,0,0,0,0,0,0,0,0,1,0,0,0,0,0,0,0,0,0,0,0,0,0,0,0,0,0],"id":3,"left_children":[1,3,5,7,9,11,13,15,17,19,21,23,25,27,29,-1,-1,-1,-1,-1,-1,-1,-1,-1,-1,-1,-1,-1,-1,-1,-1],"loss_changes":[1.6136008E3,1.0278937E3,1.7559937E2,5.235605E1,2.7005884E2,1.3749796E2,2.9569214E1,2.0200317E1,2.8475037E1,1.2811215E2,9.559546E1,4.156067E1,6.7088394E1,1.2267517E1,2.4902618E1,0E0,0E0,0E0,0E0,0E0,0E0,0E0,0E0,0E0,0E0,0E0,0E0,0E0,0E0,0E0,0E0],"parents":[2147483647,0,0,1,1,2,2,3,3,4,4,5,5,6,6,7,7,8,8,9,9,10,10,11,11,12,12,13,13,14,14],"right_children":[2,4,6,8,10,12,14,16,18,20,22,24,26,28,30,-1,-1,-1,-1,-1,-1,-1,-1,-1,-1,-1,-1,-1,-1,-1,-1],"split_conditions":[1.764E3,4.7217903E-1,2.304E3,1.9E1,1.3E1,1E0,1E0,3.8876E4,3.7E1,1E0,1E0,3.8719642E-1,2E0,6E1,4.277035E4,-3.5048008E-2,-5.6334548E-2,-1.329073E-2,-3.7864365E-2,-7.001025E-3,1.79519E-2,1.9861262E-2,3.575501E-2,-5.5614725E-2,-2.8960261E-2,1.6010294E-2,-2.5063328E-2,-5.7745595E-2,2.1074502E-2,-2.2357795E-3,-4.3304127E-2],"split_indices":[54,162,54,44,44,49,49,129,44,49,49,162,11,101,46,0,0,0,0,0,0,0,0,0,0,0,0,0,0,0,0],"split_type":[0,0,0,0,0,0,0,0,0,0,0,0,0,0,0,0,0,0,0,0,0,0,0,0,0,0,0,0,0,0,0],"sum_hessian":[3.3587583E3,2.512902E3,8.4585626E2,3.904139E2,2.122488E3,4.8317487E2,3.626814E2,1.9395285E2,1.9646106E2,7.3838727E2,1.3841008E3,3.3510202E2,1.4807286E2,2.6366727E2,9.901411E1,1.1619745E2,7.77554E1,1.3199803E2,6.446303E1,3.7147885E2,3.6690845E2,6.8721454E2,6.968863E2,6.901078E1,2.6609125E2,9.077732E1,5.7295536E1,2.6263925E2,1.0280437E0,1.6471672E1,8.2542435E1],"tree_param":{"num_deleted":"0","num_feature":"196","num_nodes":"31","size_leaf_vector":"1"}},{"base_weights":[1.0816501E-2,8.044054E-1,-6.9259465E-1,4.1239533E-1,1.0260843E0,-2.7816498E-1,-1.3959932E0,-3.0406592E-2,6.8087095E-1,1.1210256E0,6.714568E-1,-1.076669E0,2.339833E-1,-9.8957616E-1,-1.7192303E0,4.5967153E-3,-2.100949E-2,2.5069557E-2,2.147095E-3,2.6681002E-2,3.734693E-2,9.515522E-3,2.5582662E-2,-4.289051E-2,-2.1449095E-2,-7.884269E-3,1.5906792E-2,-3.898984E-2,-7.758404E-3,-5.4178454E-2,-3.0423414E-2],"categories":[],"categories_nodes":[],"categories_segments":[],"categories_sizes":[],"default_left":[0,0,0,0,0,0,0,0,0,0,0,0,0,0,0,0,0,0,0,0,0,0,0,0,0,0,0,0,0,0,0],"id":4,"left_children":[1,3,5,7,9,11,13,15,17,19,21,23,25,27,29,-1,-1,-1,-1,-1,-1,-1,-1,-1,-1,-1,-1,-1,-1,-1,-1],"loss_changes":[1.8674127E3,1.3567206E2,5.159542E2,6.802037E1,3.2298096E1,4.576369E2,8.332825E1,2.6865593E1,3.3145782E1,2.0547607E1,1.31653595E1,5.386139E1,1.005071E2,6.578479E1,1.8908325E1,0E0,0E0,0E0,0E0,0E0,0E0,0E0,0E0,0E0,0E0,0E0,0E0,0E0,0E0,0E0,0E0],"parents":[2147483647,0,0,1,1,2,2,3,3,4,4,5,5,6,6,7,7,8,8,9,9,10,10,11,11,12,12,13,13,14,14],"right_children":[2,4,6,8,10,12,14,16,18,20,22,24,26,28,30,-1,-1,-1,-1,-1,-1,-1,-1,-1,-1,-1,-1,-1,-1,-1,-1],"split_conditions":[1E0,1.3E1,4.4E1,1.7E1,3.7E1,4.7217903E-1,4.8E1,1.4747795E0,3.7E1,1E0,1E0,1.9E1,1.3E1,1E0,9.8E-1,4.5967153E-3,-2.100949E-2,2.5069557E-2,2.147095E-3,2.6681002E-2,3.734693E-2,9.515522E-3,2.5582662E-2,-4.289051E-2,-2.1449095E-2,-7.884269E-3,1.5906792E-2,-3.898984E-2,-7.758404E-3,-5.4178454E-2,-3.0423414E-2],"split_indices":[166,44,14,41,14,162,14,142,14,37,7,44,44,49,192,0,0,0,0,0,0,0,0,0,0,0,0,0,0,0,0],"split_type":[0,0,0,0,0,0,0,0,0,0,0,0,0,0,0,0,0,0,0,0,0,0,0,0,0,0,0,0,0,0,0],"sum_hessian":[3.3426135E3,1.5707166E3,1.7718971E3,5.6917395E2,1.0015426E3,1.1163696E3,6.555274E2,2.14908E2,3.5426596E2,7.871962E2,2.1434634E2,4.3586395E2,6.805057E2,2.9313547E2,3.6239197E2,1.6915881E2,4.5749187E1,2.8189084E2,7.237512E1,2.7778748E2,5.0940878E2,7.417381E1,1.4017253E2,2.1849976E2,2.1736418E2,2.5384932E2,4.2665634E2,2.0495888E2,8.817659E1,3.2084958E2,4.154239E1],"tree_param":{"num_deleted":"0","num_feature":"196","num_nodes":"31","size_leaf_vector":"1"}},{"base_weights":[1.0166831E-2,7.659038E-1,-6.6087717E-1,3.6109674E-1,1.0010608E0,-2.7881923E-1,-1.312637E0,-1.1074529E-1,6.3034284E-1,6.037564E-1,1.1149982E0,-7.1388525E-1,5.771755E-1,-9.1310954E-1,-1.6430146E0,-5.4771256E-2,-1.2671035E-3,2.4673937E-2,3.2295752E-3,1.0581934E-2,2.8357144E-2,3.4649253E-2,1.7092148E-2,-3.8026985E-2,-1.1318133E-2,2.7695604E-2,1.0368253E-2,-3.979219E-2,-8.050438E-3,-5.2360266E-2,-2.9532135E-2],"categories":[],"categories_nodes":[],"categories_segments":[],"categories_sizes":[],"default_left":[0,0,0,0,0,0,0,0,0,0,0,0,0,0,0,0,0,0,0,0,0,0,0,0,0,0,0,0,0,0,0],"id":5,"left_children":[1,3,5,7,9,11,13,15,17,19,21,23,25,27,29,-1,-1,-1,-1,-1,-1,-1,-1,-1,-1,-1,-1,-1,-1,-1,-1],"loss_changes":[1.7052513E3,1.4972241E2,4.425492E2,7.4377174E1,4.3893127E1,4.1941846E2,8.413452E1,2.4403667E1,3.6949036E1,1.8588455E1,1.5372437E1,1.3799341E2,2.9638512E1,7.921655E1,2.098413E1,0E0,0E0,0E0,0E0,0E0,0E0,0E0,0E0,0E0,0E0,0E0,0E0,0E0,0E0,0E0,0E0],"parents":[2147483647,0,0,1,1,2,2,3,3,4,4,5,5,6,6,7,7,8,8,9,9,10,10,11,11,12,12,13,13,14,14],"right_children":[2,4,6,8,10,12,14,16,18,20,22,24,26,28,30,-1,-1,-1,-1,-1,-1,-1,-1,-1,-1,-1,-1,-1,-1,-1,-1],"split_conditions":[1E0,8E0,8.5184E4,1.5E1,6.7E-1,1E0,1.10592E5,8.954241E-1,3.6E1,1E0,3.8E1,4.1E-1,3.4E1,1E0,6.48E-1,-5.4771256E-2,-1.2671035E-3,2.4673937E-2,3.2295752E-3,1.0581934E-2,2.8357144E-2,3.4649253E-2,1.7092148E-2,-3.8026985E-2,-1.1318133E-2,2.7695604E-2,1.0368253E-2,-3.979219E-2,-8.050438E-3,-5.2360266E-2,-2.9532135E-2],"split_indices":[166,44,55,41,192,51,55,178,41,13,41,162,43,51,186,0,0,0,0,0,0,0,0,0,0,0,0,0,0,0,0],"split_type":[0,0,0,0,0,0,0,0,0,0,0,0,0,0,0,0,0,0,0,0,0,0,0,0,0,0,0,0,0,0,0],"sum_hessian":[3.3598428E3,1.5802997E3,1.7795431E3,5.823293E2,9.979704E2,1.1233383E3,6.5620483E2,2.114928E2,3.708365E2,2.2478117E2,7.731892E2,7.451419E2,3.7819635E2,2.9962894E2,3.5657593E2,6.6808324E0,2.0481197E2,2.70373E2,1.004635E2,1.3144984E2,9.333134E1,7.191332E2,5.405603E1,2.8029367E2,4.6484824E2,1.49742E2,2.2845433E2,1.8159154E2,1.18037384E2,3.0670004E2,4.9875893E1],"tree_param":{"num_deleted":"0","num_feature":"196","num_nodes":"31","size_leaf_vector":"1"}},{"base_weights":[1.3055643E-2,7.232804E-1,-6.157744E-1,3.392111E-1,9.3835175E-1,-2.3334809E-1,-1.2753139E0,-7.038786E-2,5.987162E-1,6.402666E-1,1.0956694E0,-6.4016855E-1,5.785631E-1,-1.5347189E0,-8.069053E-1,-5.3117253E-2,-1.4793237E-4,2.3481026E-2,-4.9450737E-3,2.1961682E-2,-9.839234E-3,3.4875065E-2,2.1194078E-2,-2.5555644E-2,-6.4671747E-3,2.6095599E-2,1.1842346E-2,-4.206004E-2,-5.4897327E-2,-1.4089536E-2,-4.850286E-2],"categories":[],"categories_nodes":[],"categories_segments":[],"categories_sizes":[],"default_left":[0,0,0,0,0,0,0,0,0,0,0,0,0,0,0,0,0,0,0,0,0,0,0,0,0,0,0,0,0,0,0],"id":6,"left_children":[1,3,5,7,9,11,13,15,17,19,21,23,25,27,29,-1,-1,-1,-1,-1,-1,-1,-1,-1,-1,-1,-1,-1,-1,-1,-1],"loss_changes":[1.4957804E3,1.2917224E2,4.472024E2,6.0478973E1,4.5843933E1,3.724712E2,7.689038E1,2.4076805E1,4.9094795E1,3.1574188E1,1.5401428E1,6.688861E1,1.9359955E1,1.2142761E1,6.2698105E1,0E0,0E0,0E0,0E0,0E0,0E0,0E0,0E0,0E0,0E0,0E0,0E0,0E0,0E0,0E0,0E0],"parents":[2147483647,0,0,1,1,2,2,3,3,4,4,5,5,6,6,7,7,8,8,9,9,10,10,11,11,12,12,13,13,14,14],"right_children":[2,4,6,8,10,12,14,16,18,20,22,24,26,28,30,-1,-1,-1,-1,-1,-1,-1,-1,-1,-1,-1,-1,-1,-1,-1,-1],"split_conditions":[1E0,1.3E1,8.5184E4,1.5E1,1.7E1,1E0,1E0,8.954241E-1,3.7E1,3.9E1,3.8E1,1.2E1,3.4E1,1.40608E5,5.1E1,-5.3117253E-2,-1.4793237E-4,2.3481026E-2,-4.9450737E-3,2.1961682E-2,-9.839234E-3,3.4875065E-2,2.1194078E-2,-2.5555644E-2,-6.4671747E-3,2.6095599E-2,1.1842346E-2,-4.206004E-2,-5.4897327E-2,-1.4089536E-2,-4.850286E-2],"split_indices":[166,44,55,41,41,51,51,141,41,43,41,43,43,55,43,0,0,0,0,0,0,0,0,0,0,0,0,0,0,0,0],"split_type":[0,0,0,0,0,0,0,0,0,0,0,0,0,0,0,0,0,0,0,0,0,0,0,0,0,0,0,0,0,0,0],"sum_hessian":[3.3464832E3,1.5716376E3,1.7748456E3,5.658271E2,1.0058104E3,1.1248195E3,6.500261E2,2.1942824E2,3.4639886E2,3.5034604E2,6.554644E2,7.497503E2,3.7506915E2,4.160493E2,2.3397685E2,6.7140536E0,2.1271419E2,2.794777E2,6.692118E1,3.2063693E2,2.9709091E1,5.5721375E2,9.8250656E1,4.993127E2,2.5043759E2,1.4283336E2,2.322358E2,2.9226752E2,1.2378177E2,1.6682365E2,6.71532E1],"tree_param":{"num_deleted":"0","num_feature":"196","num_nodes":"31","size_leaf_vector":"1"}},{"base_weights":[-2.6470064E-3,7.201561E-1,-6.4884573E-1,3.2372534E-1,9.4681275E-1,-2.7713335E-1,-1.2746439E0,-1.03379495E-1,5.963506E-1,6.7775434E-1,1.0887318E0,-1.0399922E0,2.0686796E-1,-1.5251095E0,-8.4143984E-1,-4.065003E-2,-5.798936E-4,2.290979E-2,-1.4995848E-3,8.380744E-3,2.5380991E-2,3.4692492E-2,1.9958023E-2,-3.995092E-2,-2.174782E-2,-6.8086246E-3,1.3804101E-2,-4.672561E-2,-6.444674E-3,-8.094828E-3,-4.0802244E-2],"categories":[],"categories_nodes":[],"categories_segments":[],"categories_sizes":[],"default_left":[0,0,0,0,0,0,0,0,0,0,0,0,0,0,0,0,0,0,0,0,0,0,0,0,0,0,0,0,0,0,0],"id":7,"left_children":[1,3,5,7,9,11,13,15,17,19,21,23,25,27,29,-1,-1,-1,-1,-1,-1,-1,-1,-1,-1,-1,-1,-1,-1,-1,-1],"loss_changes":[1.5416157E3,1.3923138E2,4.0453894E2,6.6476364E1,3.636212E1,4.0493146E2,6.808008E1,2.2998339E1,3.779476E1,2.2548065E1,1.6886292E1,3.7265198E1,7.386097E1,1.6134155E1,7.0479645E1,0E0,0E0,0E0,0E0,0E0,0E0,0E0,0E0,0E0,0E0,0E0,0E0,0E0,0E0,0E0,0E0],"parents":[2147483647,0,0,1,1,2,2,3,3,4,4,5,5,6,6,7,7,8,8,9,9,10,10,11,11,12,12,13,13,14,14],"right_children":[2,4,6,8,10,12,14,16,18,20,22,24,26,28,30,-1,-1,-1,-1,-1,-1,-1,-1,-1,-1,-1,-1,-1,-1,-1,-1],"split_conditions":[1E0,1.3E1,4.4E1,1.2E1,4E0,4.7217903E-1,1E0,1.140776E6,3.7E1,1E0,3.8E1,1.9E1,1.3E1,8.332312E0,4.8E1,-4.065003E-2,-5.798936E-4,2.290979E-2,-1.4995848E-3,8.380744E-3,2.5380991E-2,3.4692492E-2,1.9958023E-2,-3.995092E-2,-2.174782E-2,-6.8086246E-3,1.3804101E-2,-4.672561E-2,-6.444674E-3,-8.094828E-3,-4.0802244E-2],"split_indices":[166,44,14,41,41,162,51,47,14,153,14,44,44,134,14,0,0,0,0,0,0,0,0,0,0,0,0,0,0,0,0],"split_type":[0,0,0,0,0,0,0,0,0,0,0,0,0,0,0,0,0,0,0,0,0,0,0,0,0,0,0,0,0,0,0],"sum_hessian":[3.2979785E3,1.5564535E3,1.741525E3,5.6777136E2,9.886822E2,1.0940225E3,6.475025E2,2.2115372E2,3.4661765E2,3.4468762E2,6.4399457E2,4.2429684E2,6.6972565E2,4.0779266E2,2.3970981E2,1.24696865E1,2.0868402E2,2.75579E2,7.103864E1,1.0370236E2,2.4098526E2,5.53307E2,9.0687515E1,2.1795882E2,2.0633803E2,2.4645326E2,4.2327237E2,3.9769385E2,1.0098825E1,1.1515391E2,1.245559E2],"tree_param":{"num_deleted":"0","num_feature":"196","num_nodes":"31","size_leaf_vector":"1"}},{"base_weights":[-7.3335045E-3,7.022408E-1,-6.370378E-1,9.2557985E-1,3.1596175E-1,-3.5040966E-1,-1.3787806E0,6.3146406E-1,1.0843511E0,-7.545289E-2,5.622346E-1,7.181797E-2,-9.225404E-1,-1.5533383E0,-8.9593494E-1,6.6417563E-3,2.3943722E-2,3.384825E-2,1.7953059E-2,-3.7904523E-2,-1.3965892E-5,2.8075356E-2,9.319121E-3,1.1256007E-2,-1.1036488E-2,-1.661598E-2,-4.0822554E-2,-3.4784522E-2,-5.0881315E-2,-1.6444117E-2,-4.5757644E-2],"categories":[],"categories_nodes":[],"categories_segments":[],"categories_sizes":[],"default_left":[0,0,0,0,0,0,0,0,0,0,0,0,0,0,0,0,0,0,0,0,0,0,0,0,0,0,0,0,0,0,0],"id":8,"left_children":[1,3,5,7,9,11,13,15,17,19,21,23,25,27,29,-1,-1,-1,-1,-1,-1,-1,-1,-1,-1,-1,-1,-1,-1,-1,-1],"loss_changes":[1.4922577E3,1.347403E2,3.7514105E2,4.5048706E1,5.5867767E1,3.0914404E2,3.902887E1,2.352269E1,1.224292E1,1.9598131E1,3.2653328E1,9.835601E1,8.620499E1,1.6789307E1,2.7734993E1,0E0,0E0,0E0,0E0,0E0,0E0,0E0,0E0,0E0,0E0,0E0,0E0,0E0,0E0,0E0,0E0],"parents":[2147483647,0,0,1,1,2,2,3,3,4,4,5,5,6,6,7,7,8,8,9,9,10,10,11,11,12,12,13,13,14,14],"right_children":[2,4,6,8,10,12,14,16,18,20,22,24,26,28,30,-1,-1,-1,-1,-1,-1,-1,-1,-1,-1,-1,-1,-1,-1,-1,-1],"split_conditions":[1E0,2E0,4.6E1,1E0,1E0,2E0,1E0,1E0,3.8E1,2.014572E2,1E0,2E0,2E0,4.8E1,5.2E1,6.6417563E-3,2.3943722E-2,3.384825E-2,1.7953059E-2,-3.7904523E-2,-1.3965892E-5,2.8075356E-2,9.319121E-3,1.1256007E-2,-1.1036488E-2,-1.661598E-2,-4.0822554E-2,-3.4784522E-2,-5.0881315E-2,-1.6444117E-2,-4.5757644E-2],"split_indices":[166,11,14,13,13,24,49,153,42,64,6,11,11,14,14,0,0,0,0,0,0,0,0,0,0,0,0,0,0,0,0],"split_type":[0,0,0,0,0,0,0,0,0,0,0,0,0,0,0,0,0,0,0,0,0,0,0,0,0,0,0,0,0,0,0],"sum_hessian":[3.3371113E3,1.5687799E3,1.7683314E3,9.9244244E2,5.763374E2,1.2771195E3,4.9121188E2,3.5081268E2,6.416298E2,2.2251875E2,3.5381866E2,7.352232E2,5.418963E2,3.5823145E2,1.3298045E2,1.02568535E2,2.4824413E2,5.8686237E2,5.476743E1,1.1765445E1,2.1075331E2,1.4064404E2,2.1317462E2,4.3554858E2,2.9967462E2,2.9600177E2,2.4589453E2,9.85587E1,2.5967276E2,8.745898E1,4.5521477E1],"tree_param":{"num_deleted":"0","num_feature":"196","num_nodes":"31","size_leaf_vector":"1"}},{"base_weights":[-3.8607335E-3,6.770126E-1,-5.915871E-1,3.1662437E-1,8.84145E-1,-2.2514074E-1,-1.2326404E0,1.283935E-1,8.310338E-1,4.4618684E-1,1.0070552E0,-9.1624254E-1,2.2114073E-1,-1.4863328E0,-7.723347E-1,-1.3888728E-2,6.9300886E-3,-3.6402814E-2,2.5917409E-2,1.6334947E-2,-2.3074407E-2,2.4928667E-2,3.4203004E-2,-1.8501328E-2,-3.770794E-2,-6.505427E-3,1.4760809E-2,-5.206301E-2,-4.006673E-2,-1.2693563E-2,-4.8593473E-2],"categories":[],"categories_nodes":[],"categories_segments":[],"categories_sizes":[],"default_left":[0,0,0,0,0,0,0,0,0,0,0,0,0,0,0,0,0,0,0,0,0,0,0,0,0,0,0,0,0,0,0],"id":9,"left_children":[1,3,5,7,9,11,13,15,17,19,21,23,25,27,29,-1,-1,-1,-1,-1,-1,-1,-1,-1,-1,-1,-1,-1,-1,-1,-1],"loss_changes":[1.3168191E3,1.1310297E2,4.1419153E2,5.372022E1,5.1065002E1,3.4767416E2,7.2847534E1,2.4994165E1,1.1205826E1,2.6083416E1,1.5854614E1,4.3581055E1,8.139743E1,1.1619141E1,6.695798E1,0E0,0E0,0E0,0E0,0E0,0E0,0E0,0E0,0E0,0E0,0E0,0E0,0E0,0E0,0E0,0E0],"parents":[2147483647,0,0,1,1,2,2,3,3,4,4,5,5,6,6,7,7,8,8,9,9,10,10,11,11,12,12,13,13,14,14],"right_children":[2,4,6,8,10,12,14,16,18,20,22,24,26,28,30,-1,-1,-1,-1,-1,-1,-1,-1,-1,-1,-1,-1,-1,-1,-1,-1],"split_conditions":[1E0,1.3E1,1.936E3,1.32E0,6.7E-1,4.7217903E-1,1E0,6.3E-1,1.12E3,8.12179E-1,1E0,1.296E3,1E1,3.8956696E-1,5.1E1,-1.3888728E-2,6.9300886E-3,-3.6402814E-2,2.5917409E-2,1.6334947E-2,-2.3074407E-2,2.4928667E-2,3.4203004E-2,-1.8501328E-2,-3.770794E-2,-6.505427E-3,1.4760809E-2,-5.206301E-2,-4.006673E-2,-1.2693563E-2,-4.8593473E-2],"split_indices":[166,44,54,192,192,162,51,192,106,162,24,54,44,162,43,0,0,0,0,0,0,0,0,0,0,0,0,0,0,0,0],"split_type":[0,0,0,0,0,0,0,0,0,0,0,0,0,0,0,0,0,0,0,0,0,0,0,0,0,0,0,0,0,0,0],"sum_hessian":[3.288088E3,1.5230288E3,1.7650592E3,5.5755505E2,9.6547375E2,1.1244712E3,6.40588E2,4.097746E2,1.4778044E2,2.133867E2,7.5208704E2,4.4090213E2,6.8356903E2,4.1071252E2,2.2987549E2,5.9493088E1,3.5028152E2,1.4381033E0,1.4634233E2,1.9832127E2,1.506542E1,3.2766708E2,4.2441995E2,2.36758E2,2.0414415E2,2.608589E2,4.2271014E2,1.4957858E2,2.6113394E2,1.64355E2,6.552049E1],"tree_param":{"num_deleted":"0","num_feature":"196","num_nodes":"31","size_leaf_vector":"1"}},{"base_weights":[9.250295E-3,6.7730445E-1,-5.807501E-1,3.0551663E-1,8.9162976E-1,-3.1717575E-1,-1.430846E0,-1.03646204E-1,5.5225426E-1,6.3478327E-1,1.0304866E0,-6.80305E-1,3.7746465E-1,1.2601985E-1,-1.4714638E0,5.8689276E-3,-1.204934E-2,2.2183169E-2,1.3531086E-3,1.0339554E-2,2.5189556E-2,3.3043835E-2,2.2882953E-2,-1.0777661E-2,-2.7688375E-2,2.1072395E-2,2.8365003E-3,2.9737864E-2,-3.6924876E-2,-4.687954E-2,-2.5752319E-2],"categories":[],"categories_nodes":[],"categories_segments":[],"categories_sizes":[],"default_left":[0,0,0,0,0,0,0,0,0,0,0,0,0,0,0,0,0,0,0,0,0,0,0,0,0,0,0,0,0,0,0],"id":10,"left_children":[1,3,5,7,9,11,13,15,17,19,21,23,25,27,29,-1,-1,-1,-1,-1,-1,-1,-1,-1,-1,-1,-1,-1,-1,-1,-1],"loss_changes":[1.3029894E3,1.2287512E2,3.9221973E2,5.768252E1,3.3733887E1,3.3886542E2,2.6830627E1,1.9310387E1,3.347709E1,2.0016205E1,1.0402466E1,6.7846344E1,4.207184E1,1.5149217E1,2.0064026E1,0E0,0E0,0E0,0E0,0E0,0E0,0E0,0E0,0E0,0E0,0E0,0E0,0E0,0E0,0E0,0E0],"parents":[2147483647,0,0,1,1,2,2,3,3,4,4,5,5,6,6,7,7,8,8,9,9,10,10,11,11,12,12,13,13,14,14],"right_children":[2,4,6,8,10,12,14,16,18,20,22,24,26,28,30,-1,-1,-1,-1,-1,-1,-1,-1,-1,-1,-1,-1,-1,-1,-1,-1],"split_conditions":[1E0,1.3E1,4.7E1,1E0,1E0,1E0,9.092979E-3,3.3E1,3.6E1,1E0,3.7E1,3.6E1,3.9E1,5E1,9.8E-1,5.8689276E-3,-1.204934E-2,2.2183169E-2,1.3531086E-3,1.0339554E-2,2.5189556E-2,3.3043835E-2,2.2882953E-2,-1.0777661E-2,-2.7688375E-2,2.1072395E-2,2.8365003E-3,2.9737864E-2,-3.6924876E-2,-4.687954E-2,-2.5752319E-2],"split_indices":[166,44,14,13,13,51,193,14,14,156,14,14,14,14,192,0,0,0,0,0,0,0,0,0,0,0,0,0,0,0,0],"split_type":[0,0,0,0,0,0,0,0,0,0,0,0,0,0,0,0,0,0,0,0,0,0,0,0,0,0,0,0,0,0,0],"sum_hessian":[3.303101E3,1.5492015E3,1.7538997E3,5.681215E2,9.810801E2,1.3404215E3,4.1347806E2,2.1360182E2,3.5451968E2,3.475201E2,6.3355994E2,8.805264E2,4.598951E2,1.02771635E1,4.032009E2,1.06340996E2,1.0726082E2,2.582355E2,9.6284164E1,1.4565163E2,2.0186848E2,4.97534E2,1.3602597E2,3.804783E2,5.0004813E2,2.1281474E2,2.4708038E2,6.611779E0,3.6653843E0,3.4917392E2,5.4026978E1],"tree_param":{"num_deleted":"0","num_feature":"196","num_nodes":"31","size_leaf_vector":"1"}},{"base_weights":[1.806684E-2,6.513071E-1,-5.303578E-1,2.7925068E-1,8.7358534E-1,-1.904893E-1,-1.1164299E0,5.08066E-1,-1.8963121E-1,9.525629E-1,4.5778662E-1,-8.424106E-1,2.3801449E-1,-7.81257E-1,-1.4043663E0,-1.5587953E-3,1.8955989E-2,-2.5353523E-3,-3.8991425E-2,2.2127602E-2,3.1643376E-2,1.6322281E-2,-2.6439518E-2,-3.5263274E-2,-1.5840637E-2,-2.4375943E-3,1.3530417E-2,-3.3299617E-2,-8.4764175E-3,-4.2968675E-2,3.854071E-3],"categories":[],"categories_nodes":[],"categories_segments":[],"categories_sizes":[],"default_left":[0,0,0,0,0,0,0,0,0,0,0,0,0,0,0,0,0,0,0,0,0,0,0,0,0,0,0,0,0,0,0],"id":11,"left_children":[1,3,5,7,9,11,13,15,17,19,21,23,25,27,29,-1,-1,-1,-1,-1,-1,-1,-1,-1,-1,-1,-1,-1,-1,-1,-1],"loss_changes":[1.1528905E3,1.2680505E2,3.5367957E2,6.229522E1,3.0693237E1,3.154581E2,6.0930664E1,2.7154175E1,2.1699791E1,1.6206665E1,1.8620396E1,4.5582794E1,4.643014E1,4.913884E1,1.5212341E1,0E0,0E0,0E0,0E0,0E0,0E0,0E0,0E0,0E0,0E0,0E0,0E0,0E0,0E0,0E0,0E0],"parents":[2147483647,0,0,1,1,2,2,3,3,4,4,5,5,6,6,7,7,8,8,9,9,10,10,11,11,12,12,13,13,14,14],"right_children":[2,4,6,8,10,12,14,16,18,20,22,24,26,28,30,-1,-1,-1,-1,-1,-1,-1,-1,-1,-1,-1,-1,-1,-1,-1,-1],"split_conditions":[1E0,1.3E1,6.6332498E0,3.4E1,3.7E1,4.7648734E-1,6.928203E0,1.0981285E1,6.174493E4,1E0,7.0034666E0,1.9E1,1.2E1,4.5E1,8.331089E-1,-1.5587953E-3,1.8955989E-2,-2.5353523E-3,-3.8991425E-2,2.2127602E-2,3.1643376E-2,1.6322281E-2,-2.6439518E-2,-3.5263274E-2,-1.5840637E-2,-2.4375943E-3,1.3530417E-2,-3.3299617E-2,-8.4764175E-3,-4.2968675E-2,3.854071E-3],"split_indices":[166,44,56,42,42,162,56,61,20,13,141,44,44,44,162,0,0,0,0,0,0,0,0,0,0,0,0,0,0,0,0],"split_type":[0,0,0,0,0,0,0,0,0,0,0,0,0,0,0,0,0,0,0,0,0,0,0,0,0,0,0,0,0,0,0],"sum_hessian":[3.3170046E3,1.5395698E3,1.7774349E3,5.773498E2,9.6222003E2,1.1264158E3,6.510191E2,3.8830804E2,1.8904178E2,8.066619E2,1.5555809E2,4.4648306E2,6.7993274E2,3.0352203E2,3.474971E2,6.9936554E1,3.183715E2,1.7419205E2,1.4849738E1,2.6331296E2,5.43349E2,1.470826E2,8.475497E0,2.1488127E2,2.3160178E2,2.7180032E2,4.0813242E2,1.8175693E2,1.217651E2,3.4165927E2,5.837837E0],"tree_param":{"num_deleted":"0","num_feature":"196","num_nodes":"31","size_leaf_vector":"1"}},{"base_weights":[6.515436E-3,6.269496E-1,-5.26865E-1,2.9167372E-1,8.266564E-1,-1.8833426E-1,-1.1079987E0,1.2815209E-1,7.505159E-1,4.820272E-1,9.4775337E-1,-8.626799E-1,2.2013994E-1,-7.620279E-1,-1.399869E0,-4.1720276E-3,1.009769E-2,-3.8845606E-2,2.3631928E-2,7.7298605E-3,2.4125997E-2,2.1888066E-2,3.161699E-2,-1.722383E-2,-3.6899928E-2,-3.93703E-3,1.269978E-2,-3.2818668E-2,-7.140136E-3,-0E0,-4.3178804E-2],"categories":[],"categories_nodes":[],"categories_segments":[],"categories_sizes":[],"default_left":[0,0,0,0,0,0,0,0,0,0,0,0,0,0,0,0,0,0,0,0,0,0,0,0,0,0,0,0,0,0,0],"id":12,"left_children":[1,3,5,7,9,11,13,15,17,19,21,23,25,27,29,-1,-1,-1,-1,-1,-1,-1,-1,-1,-1,-1,-1,-1,-1,-1,-1],"loss_changes":[1.084711E3,1.00854614E2,3.4607922E2,4.2275993E1,3.8603943E1,3.0767722E2,6.3469604E1,2.3540491E1,1.2424652E1,1.7499191E1,1.4680481E1,4.322174E1,4.975538E1,5.1409073E1,1.9096558E1,0E0,0E0,0E0,0E0,0E0,0E0,0E0,0E0,0E0,0E0,0E0,0E0,0E0,0E0,0E0,0E0],"parents":[2147483647,0,0,1,1,2,2,3,3,4,4,5,5,6,6,7,7,8,8,9,9,10,10,11,11,12,12,13,13,14,14],"right_children":[2,4,6,8,10,12,14,16,18,20,22,24,26,28,30,-1,-1,-1,-1,-1,-1,-1,-1,-1,-1,-1,-1,-1,-1,-1,-1],"split_conditions":[1E0,1.3E1,4.4E1,1.32E0,6.8E-1,4.601229E-1,4.8E1,1E0,1.7E1,1E0,1E0,3.6E1,1.3E1,1E0,6.223818E-3,-4.1720276E-3,1.009769E-2,-3.8845606E-2,2.3631928E-2,7.7298605E-3,2.4125997E-2,2.1888066E-2,3.161699E-2,-1.722383E-2,-3.6899928E-2,-3.93703E-3,1.269978E-2,-3.2818668E-2,-7.140136E-3,-0E0,-4.3178804E-2],"split_indices":[166,44,14,192,192,162,14,66,14,13,153,14,44,51,140,0,0,0,0,0,0,0,0,0,0,0,0,0,0,0,0],"split_type":[0,0,0,0,0,0,0,0,0,0,0,0,0,0,0,0,0,0,0,0,0,0,0,0,0,0,0,0,0,0,0],"sum_hessian":[3.2750742E3,1.5141091E3,1.7609651E3,5.669166E2,9.471925E2,1.114141E3,6.4682404E2,4.1963266E2,1.4728397E2,2.4856313E2,6.986294E2,4.1998E2,6.94161E2,2.9857562E2,3.4824844E2,1.8347867E2,2.36154E2,1.6867524E0,1.4559721E2,1.4831905E2,1.0024409E2,2.3207301E2,4.6655637E2,2.3728555E2,1.8269446E2,2.5391937E2,4.4024164E2,1.8171002E2,1.16865585E2,9.399648E0,3.388488E2],"tree_param":{"num_deleted":"0","num_feature":"196","num_nodes":"31","size_leaf_vector":"1"}},{"base_weights":[-1.0935717E-2,3.007906E-1,-9.357815E-1,-8.150436E-1,5.1253706E-1,-1.1931185E0,-3.1365627E-1,-4.7328094E-1,-1.1716202E0,7.1944296E-1,1.4986135E-1,-9.0996766E-1,-1.4581174E0,-2.9468182E-2,-1.2723418E0,-4.5091417E-3,-2.6765658E-2,2.1820813E-3,-3.6542445E-2,1.5143613E-2,2.808222E-2,-3.644019E-3,1.3540179E-2,2.1589396E-3,-3.0343467E-2,-4.414058E-2,2.578419E-2,8.872464E-3,-1.3192877E-2,-4.4204846E-2,1.0898628E-2],"categories":[],"categories_nodes":[],"categories_segments":[],"categories_sizes":[],"default_left":[0,0,0,0,0,0,0,0,0,0,0,0,1,0,0,0,0,0,0,0,0,0,0,0,0,0,0,0,0,0,0],"id":13,"left_children":[1,3,5,7,9,11,13,15,17,19,21,23,25,27,29,-1,-1,-1,-1,-1,-1,-1,-1,-1,-1,-1,-1,-1,-1,-1,-1],"loss_changes":[9.451898E2,5.7967755E2,1.3143341E2,4.651999E1,1.543172E2,4.1437134E1,6.606781E1,2.6913322E1,1.1302643E1,5.9947937E1,6.154065E1,2.8757858E1,1.059314E1,2.550585E1,1.9215874E1,0E0,0E0,0E0,0E0,0E0,0E0,0E0,0E0,0E0,0E0,0E0,0E0,0E0,0E0,0E0,0E0],"parents":[2147483647,0,0,1,1,2,2,3,3,4,4,5,5,6,6,7,7,8,8,9,9,10,10,11,11,12,12,13,13,14,14],"right_children":[2,4,6,8,10,12,14,16,18,20,22,24,26,28,30,-1,-1,-1,-1,-1,-1,-1,-1,-1,-1,-1,-1,-1,-1,-1,-1],"split_conditions":[4.2E1,4.7217903E-1,1E0,2E0,2E0,4.7E1,5.1E1,1E0,4.7E1,1E0,1.9E1,5.125E0,6E1,2E0,6.1710916E0,-4.5091417E-3,-2.6765658E-2,2.1820813E-3,-3.6542445E-2,1.5143613E-2,2.808222E-2,-3.644019E-3,1.3540179E-2,2.1589396E-3,-3.0343467E-2,-4.414058E-2,2.578419E-2,8.872464E-3,-1.3192877E-2,-4.4204846E-2,1.0898628E-2],"split_indices":[14,162,49,11,11,14,14,15,4,49,41,128,101,11,134,0,0,0,0,0,0,0,0,0,0,0,0,0,0,0,0],"split_type":[0,0,0,0,0,0,0,0,0,0,0,0,0,0,0,0,0,0,0,0,0,0,0,0,0,0,0,0,0,0,0],"sum_hessian":[3.2753176E3,2.4500981E3,8.2521954E2,3.8998697E2,2.0601113E3,5.8259705E2,2.4262245E2,2.0107657E2,1.889104E2,1.3104657E3,7.496455E2,2.8496313E2,2.9763394E2,1.884077E2,5.421475E1,1.1485628E2,8.62203E1,6.4993114E0,1.8241109E2,6.601847E2,6.50281E2,3.9442645E2,3.552191E2,2.6388363E1,2.5857477E2,2.9661072E2,1.0232294E0,1.0494357E2,8.346413E1,4.8553192E1,5.6615543E0],"tree_param":{"num_deleted":"0","num_feature":"196","num_nodes":"31","size_leaf_vector":"1"}},{"base_weights":[5.9327856E-3,3.1570214E-1,-9.062114E-1,-5.635018E-1,5.187219E-1,-1.1779225E0,-2.6684225E-1,-1.0150958E0,-2.2922882E-1,1.7667282E-1,7.2539073E-1,-9.359008E-1,-1.4110808E0,1.6952468E-1,-1.0056051E0,-3.7779033E-2,-1.7282736E-2,-2.1052902E-4,-2.6705071E-2,-3.5417175E-3,1.47953965E-2,1.4777325E-2,2.6338072E-2,-3.4837257E-2,-1.1830339E-2,-4.2709347E-2,1.1337945E-2,1.737794E-2,-1.4118244E-2,-3.6259532E-2,1.0365502E-2],"categories":[],"categories_nodes":[],"categories_segments":[],"categories_sizes":[],"default_left":[0,0,0,0,0,0,0,0,0,0,0,0,1,0,0,0,0,0,0,0,0,0,0,0,0,0,0,0,0,0,0],"id":14,"left_children":[1,3,5,7,9,11,13,15,17,19,21,23,25,27,29,-1,-1,-1,-1,-1,-1,-1,-1,-1,-1,-1,-1,-1,-1,-1,-1],"loss_changes":[9.2056177E2,4.3459482E2,1.4267603E2,6.831227E1,1.393656E2,3.0303528E1,8.048895E1,1.9277618E1,3.8582115E1,6.97988E1,4.2745056E1,3.4133102E1,7.246582E0,4.153181E1,2.6124237E1,0E0,0E0,0E0,0E0,0E0,0E0,0E0,0E0,0E0,0E0,0E0,0E0,0E0,0E0,0E0,0E0],"parents":[2147483647,0,0,1,1,2,2,3,3,4,4,5,5,6,6,7,7,8,8,9,9,10,10,11,11,12,12,13,13,14,14],"right_children":[2,4,6,8,10,12,14,16,18,20,22,24,26,28,30,-1,-1,-1,-1,-1,-1,-1,-1,-1,-1,-1,-1,-1,-1,-1,-1],"split_conditions":[1.764E3,1E1,1E0,1.9E1,1.4E1,2.209E3,4.8E1,1.9E1,3.273111E6,1.5E1,6.7E-1,1E0,6E1,2E0,9.4538E4,-3.7779033E-2,-1.7282736E-2,-2.1052902E-4,-2.6705071E-2,-3.5417175E-3,1.47953965E-2,1.4777325E-2,2.6338072E-2,-3.4837257E-2,-1.1830339E-2,-4.2709347E-2,1.1337945E-2,1.737794E-2,-1.4118244E-2,-3.6259532E-2,1.0365502E-2],"split_indices":[54,43,49,44,44,54,41,41,47,41,192,66,101,11,5,0,0,0,0,0,0,0,0,0,0,0,0,0,0,0,0],"split_type":[0,0,0,0,0,0,0,0,0,0,0,0,0,0,0,0,0,0,0,0,0,0,0,0,0,0,0,0,0,0,0],"sum_hessian":[3.2558958E3,2.4313486E3,8.2454724E2,4.5542505E2,1.9759236E3,5.775727E2,2.4697455E2,1.9223804E2,2.63187E2,7.4561444E2,1.2303092E3,2.872027E2,2.9037E2,1.5567862E2,9.1295944E1,1.2166763E2,7.0570404E1,1.982363E2,6.495071E1,3.8599966E2,3.5961475E2,4.8899518E2,7.4131396E2,2.015413E2,8.5661385E1,2.8885013E2,1.5198654E0,9.5259415E1,6.04192E1,7.9683365E1,1.1612576E1],"tree_param":{"num_deleted":"0","num_feature":"196","num_nodes":"31","size_leaf_vector":"1"}},{"base_weights":[-2.6243385E-3,-8.694163E-1,2.9645482E-1,-1.1818976E0,-3.7817237E-1,-6.486928E-1,5.122505E-1,-1.4274986E0,-9.1798544E-1,1.0815319E-2,-1.0832825E0,-9.5365953E-1,-2.4347337E-1,1.6164662E-1,7.2331566E-1,-4.639155E-2,-2.3742288E-2,-5.1602628E-2,-2.3846677E-2,-1.4956092E-2,1.6461166E-2,-1.4874717E-2,-4.135648E-2,-2.9772589E-2,4.004285E-2,2.8278618E-3,-2.105131E-2,-6.983153E-3,1.1305764E-2,1.5334378E-2,2.7615856E-2],"categories":[],"categories_nodes":[],"categories_segments":[],"categories_sizes":[],"default_left":[0,0,0,0,0,0,0,0,0,0,0,0,0,0,0,0,0,0,0,0,0,0,0,0,0,0,0,0,0,0,0],"id":15,"left_children":[1,3,5,7,9,11,13,15,17,19,21,23,25,27,29,-1,-1,-1,-1,-1,-1,-1,-1,-1,-1,-1,-1,-1,-1,-1,-1],"loss_changes":[8.334056E2,1.2560333E2,4.8775546E2,3.0263794E1,8.887222E1,5.4308823E1,1.4363702E2,1.7167114E1,2.1937576E1,5.763968E1,1.8532455E1,2.3846695E1,3.0099161E1,6.236199E1,4.975482E1,0E0,0E0,0E0,0E0,0E0,0E0,0E0,0E0,0E0,0E0,0E0,0E0,0E0,0E0,0E0,0E0],"parents":[2147483647,0,0,1,1,2,2,3,3,4,4,5,5,6,6,7,7,8,8,9,9,10,10,11,11,12,12,13,13,14,14],"right_children":[2,4,6,8,10,12,14,16,18,20,22,24,26,28,30,-1,-1,-1,-1,-1,-1,-1,-1,-1,-1,-1,-1,-1,-1,-1,-1],"split_conditions":[5.9E1,1E0,1.3E1,5.4E1,4.8E1,1.9E1,1E0,6.12E-1,1.969E3,1E0,7.560405E4,2.2201E6,3.5E1,1E0,1E0,-4.639155E-2,-2.3742288E-2,-5.1602628E-2,-2.3846677E-2,-1.4956092E-2,1.6461166E-2,-1.4874717E-2,-4.135648E-2,-2.9772589E-2,4.004285E-2,2.8278618E-3,-2.105131E-2,-6.983153E-3,1.1305764E-2,1.5334378E-2,2.7615856E-2],"split_indices":[58,51,43,58,43,41,40,186,1,13,46,129,41,7,13,0,0,0,0,0,0,0,0,0,0,0,0,0,0,0,0],"split_type":[0,0,0,0,0,0,0,0,0,0,0,0,0,0,0,0,0,0,0,0,0,0,0,0,0,0,0,0,0,0,0],"sum_hessian":[3.211595E3,8.2344666E2,2.3881484E3,5.01835E2,3.216117E2,4.431884E2,1.94496E3,2.5640268E2,2.4543231E2,2.0786409E2,1.13747604E2,2.5148405E2,1.9170432E2,7.322273E2,1.2127327E3,2.14279E2,4.2123657E1,3.0187967E1,2.1524434E2,1.0656059E2,1.01303505E2,3.947406E1,7.4273544E1,2.481852E2,3.2988658E0,1.1061099E2,8.109332E1,2.579424E2,4.7428488E2,5.862898E2,6.2644293E2],"tree_param":{"num_deleted":"0","num_feature":"196","num_nodes":"31","size_leaf_vector":"1"}},{"base_weights":[4.485714E-3,5.672883E-1,-4.6793061E-1,2.4324846E-1,7.6061326E-1,-1.1269127E0,-2.3762256E-1,-7.0793056E-1,3.4746256E-1,9.955117E-1,6.179885E-1,-7.6848495E-1,-1.2806749E0,1.2094017E-2,-9.290784E-1,-3.172389E-2,1.4277865E-2,-6.0313223E-3,1.5411189E-2,2.2395788E-2,3.3264596E-2,2.4018137E-2,9.6626915E-3,-3.4802742E-3,-3.313015E-2,-2.7123095E-2,-4.128804E-2,-7.6950146E-3,1.0322592E-2,-2.0650735E-2,-4.1529156E-2],"categories":[],"categories_nodes":[],"categories_segments":[],"categories_sizes":[],"default_left":[0,0,0,0,0,0,0,0,0,0,0,0,0,0,0,0,0,0,0,0,0,0,0,0,0,0,0,0,0,0,0],"id":16,"left_children":[1,3,5,7,9,11,13,15,17,19,21,23,25,27,29,-1,-1,-1,-1,-1,-1,-1,-1,-1,-1,-1,-1,-1,-1,-1,-1],"loss_changes":[8.5656384E2,9.160306E1,2.6505878E2,5.4936638E1,2.9577576E1,2.3118347E1,2.2466E2,2.3413141E1,4.5615597E1,8.115021E0,3.0474106E1,3.0099274E1,9.021179E0,8.5303925E1,3.6012238E1,0E0,0E0,0E0,0E0,0E0,0E0,0E0,0E0,0E0,0E0,0E0,0E0,0E0,0E0,0E0,0E0],"parents":[2147483647,0,0,1,1,2,2,3,3,4,4,5,5,6,6,7,7,8,8,9,9,10,10,11,11,12,12,13,13,14,14],"right_children":[2,4,6,8,10,12,14,16,18,20,22,24,26,28,30,-1,-1,-1,-1,-1,-1,-1,-1,-1,-1,-1,-1,-1,-1,-1,-1],"split_conditions":[1E0,1.3E1,4.1E-1,6.3E-1,1E0,1E0,4.6E1,1E0,1E0,1E0,3.2E1,3.7E1,1E0,1E0,5.2E1,-3.172389E-2,1.4277865E-2,-6.0313223E-3,1.5411189E-2,2.2395788E-2,3.3264596E-2,2.4018137E-2,9.6626915E-3,-3.4802742E-3,-3.313015E-2,-2.7123095E-2,-4.128804E-2,-7.6950146E-3,1.0322592E-2,-2.0650735E-2,-4.1529156E-2],"split_indices":[166,44,162,192,151,6,14,149,25,7,42,14,11,51,14,0,0,0,0,0,0,0,0,0,0,0,0,0,0,0,0],"split_type":[0,0,0,0,0,0,0,0,0,0,0,0,0,0,0,0,0,0,0,0,0,0,0,0,0,0,0,0,0,0,0],"sum_hessian":[3.2189172E3,1.4690692E3,1.7498481E3,5.505752E2,9.18494E2,4.515473E2,1.2983008E3,5.3360878E1,4.9721432E2,3.4331702E2,5.75177E2,1.3844911E2,3.130982E2,9.545009E2,3.4379987E2,4.1488636E1,1.1872244E1,1.1511663E2,3.820977E2,1.1085869E2,2.3245834E2,3.54023E2,2.2115395E2,4.7875378E1,9.057374E1,6.64042E1,2.46694E2,5.27347E2,4.271539E2,2.2724864E2,1.1655122E2],"tree_param":{"num_deleted":"0","num_feature":"196","num_nodes":"31","size_leaf_vector":"1"}},{"base_weights":[-1.7894195E-2,2.2150363E-1,-1.005765E0,-6.2767345E-1,4.217966E-1,-6.64465E-1,-1.2925874E0,-3.0155584E-1,-1.0321696E0,1.4148225E-1,6.973356E-1,-1.0535147E0,-8.792651E-2,9.437365E-3,-1.3321362E0,-2.0619953E-2,-3.7836612E-4,-3.8016215E-2,-2.0209495E-2,1.2581189E-2,-4.3975953E-3,2.6279027E-2,1.1778384E-2,-3.5802662E-2,-1.8433066E-2,1.6735598E-2,-1.2799943E-2,-3.4736093E-2,2.7882336E-2,2.7777045E-3,-4.0624067E-2],"categories":[],"categories_nodes":[],"categories_segments":[],"categories_sizes":[],"default_left":[0,0,0,0,0,0,0,0,0,0,0,1,1,0,0,0,0,0,0,0,0,0,0,0,0,0,0,0,0,0,0],"id":17,"left_children":[1,3,5,7,9,11,13,15,17,19,21,23,25,27,29,-1,-1,-1,-1,-1,-1,-1,-1,-1,-1,-1,-1,-1,-1,-1,-1],"loss_changes":[7.5017175E2,4.3442712E2,5.892505E1,6.3533737E1,1.5924835E2,6.36595E1,1.7586426E1,3.0110802E1,1.6592972E1,8.225493E1,5.5808197E1,8.980972E0,2.581355E1,1.3131891E1,1.0428589E1,0E0,0E0,0E0,0E0,0E0,0E0,0E0,0E0,0E0,0E0,0E0,0E0,0E0,0E0,0E0,0E0],"parents":[2147483647,0,0,1,1,2,2,3,3,4,4,5,5,6,6,7,7,8,8,9,9,10,10,11,11,12,12,13,13,14,14],"right_children":[2,4,6,8,10,12,14,16,18,20,22,24,26,28,30,-1,-1,-1,-1,-1,-1,-1,-1,-1,-1,-1,-1,-1,-1,-1,-1],"split_conditions":[4.4E1,1.1E1,4.8E1,2E0,1.2E1,1E0,6.223818E-3,1E0,1.8E1,3.4E1,2E0,1.1076923E-1,1.785E3,1E0,2.8666666E0,-2.0619953E-2,-3.7836612E-4,-3.8016215E-2,-2.0209495E-2,1.2581189E-2,-4.3975953E-3,2.6279027E-2,1.1778384E-2,-3.5802662E-2,-1.8433066E-2,1.6735598E-2,-1.2799943E-2,-3.4736093E-2,2.7882336E-2,2.7777045E-3,-4.0624067E-2],"split_indices":[14,43,14,11,41,51,140,157,41,14,11,194,106,110,128,0,0,0,0,0,0,0,0,0,0,0,0,0,0,0,0],"split_type":[0,0,0,0,0,0,0,0,0,0,0,0,0,0,0,0,0,0,0,0,0,0,0,0,0,0,0,0,0,0,0],"sum_hessian":[3.1686135E3,2.5511348E3,6.174786E2,4.860988E2,2.0650361E3,2.8438153E2,3.3309708E2,2.707602E2,2.153386E2,1.0251132E3,1.039923E3,1.6887444E2,1.1550708E2,9.652137E0,3.2344492E2,1.14828316E2,1.5593187E2,1.2775244E2,8.758614E1,5.220371E2,5.0307602E2,6.5409186E2,3.858311E2,1.2601435E2,4.286009E1,3.917556E1,7.633152E1,3.977111E0,5.6750255E0,4.552475E0,3.1889246E2],"tree_param":{"num_deleted":"0","num_feature":"196","num_nodes":"31","size_leaf_vector":"1"}},{"base_weights":[-2.2965489E-2,2.5841665E-1,-8.4879684E-1,-6.86722E-1,4.459276E-1,-5.5947137E-1,-1.2663195E0,-5.269069E-1,-1.2208983E0,1.4823657E-1,6.2643373E-1,-1.2493005E0,-3.506224E-1,-1.350608E0,-7.038734E-1,-2.6367538E-2,-8.438244E-3,-4.2060003E-2,-1.2195383E-2,1.5987752E-2,-1.9428333E-3,2.3479909E-2,1.2076603E-2,-1.034835E-2,-4.0954266E-2,-1.915966E-2,4.042014E-4,-4.092271E-2,2.0088928E-2,-3.3649947E-3,-3.987717E-2],"categories":[],"categories_nodes":[],"categories_segments":[],"categories_sizes":[],"default_left":[0,0,0,0,0,0,0,0,0,0,0,0,0,1,0,0,0,0,0,0,0,0,0,0,0,0,0,0,0,0,0],"id":18,"left_children":[1,3,5,7,9,11,13,15,17,19,21,23,25,27,29,-1,-1,-1,-1,-1,-1,-1,-1,-1,-1,-1,-1,-1,-1,-1,-1],"loss_changes":[7.388208E2,4.2049884E2,9.6197205E1,3.2219696E1,1.0603201E2,6.815999E1,1.3815674E1,2.5727318E1,1.1868973E1,6.1533978E1,4.228073E1,1.04774475E1,3.9008896E1,8.826538E0,1.6463247E1,0E0,0E0,0E0,0E0,0E0,0E0,0E0,0E0,0E0,0E0,0E0,0E0,0E0,0E0,0E0,0E0],"parents":[2147483647,0,0,1,1,2,2,3,3,4,4,5,5,6,6,7,7,8,8,9,9,10,10,11,11,12,12,13,13,14,14],"right_children":[2,4,6,8,10,12,14,16,18,20,22,24,26,28,30,-1,-1,-1,-1,-1,-1,-1,-1,-1,-1,-1,-1,-1,-1,-1,-1],"split_conditions":[4.2E1,4.7217903E-1,4.8E1,1E0,1.3E1,4.22831E-1,6.48E-1,1E0,6E0,1E0,3.4E1,2E0,4E0,6E1,5.0009E4,-2.6367538E-2,-8.438244E-3,-4.2060003E-2,-1.2195383E-2,1.5987752E-2,-1.9428333E-3,2.3479909E-2,1.2076603E-2,-1.034835E-2,-4.0954266E-2,-1.915966E-2,4.042014E-4,-4.092271E-2,2.0088928E-2,-3.3649947E-3,-3.987717E-2],"split_indices":[14,162,14,93,44,162,186,7,21,152,14,28,41,101,9,0,0,0,0,0,0,0,0,0,0,0,0,0,0,0,0],"split_type":[0,0,0,0,0,0,0,0,0,0,0,0,0,0,0,0,0,0,0,0,0,0,0,0,0,0,0,0,0,0,0],"sum_hessian":[3.1762073E3,2.3694583E3,8.067491E2,3.914505E2,1.9780077E3,4.7873032E2,3.2801874E2,3.0370428E2,8.7746216E1,7.481027E2,1.229905E3,1.0943296E2,3.6929736E2,2.832514E2,4.4767357E1,1.23088936E2,1.8061536E2,7.078202E1,1.6964195E1,2.6641144E2,4.8169125E2,7.2256964E2,5.0733533E2,1.3227244E1,9.620572E1,2.0611462E2,1.6318274E2,2.8200446E2,1.2469428E0,2.400906E1,2.0758295E1],"tree_param":{"num_deleted":"0","num_feature":"196","num_nodes":"31","size_leaf_vector":"1"}},{"base_weights":[-2.6613723E-2,5.0643003E-1,-4.864447E-1,6.837422E-1,2.1450551E-1,-2.1406448E-1,-9.689592E-1,4.0782487E-1,8.343008E-1,4.4336736E-1,-1.07438326E-1,-8.203977E-1,1.4374968E-1,-1.1639737E0,-4.8295116E-1,1.9385565E-2,4.2951074E-3,1.9482637E-2,2.8929705E-2,2.419389E-2,6.45236E-3,-9.324934E-4,-3.6225323E-2,-1.3550728E-2,-3.011033E-2,1.3370573E-2,-1.3536225E-3,-2.5483929E-2,-4.0085115E-2,-7.931487E-3,-4.405965E-2],"categories":[],"categories_nodes":[],"categories_segments":[],"categories_sizes":[],"default_left":[0,0,0,0,0,0,0,0,0,0,0,0,0,0,0,0,0,0,0,0,0,0,0,0,0,0,0,0,0,0,0],"id":19,"left_children":[1,3,5,7,9,11,13,15,17,19,21,23,25,27,29,-1,-1,-1,-1,-1,-1,-1,-1,-1,-1,-1,-1,-1,-1,-1,-1],"loss_changes":[7.695264E2,7.48194E1,2.2096704E2,3.6746124E1,4.0811005E1,2.34546E2,5.640326E1,1.9969967E1,1.272879E1,2.6284775E1,1.8926315E1,2.6077606E1,3.8869965E1,2.1287476E1,3.7075764E1,0E0,0E0,0E0,0E0,0E0,0E0,0E0,0E0,0E0,0E0,0E0,0E0,0E0,0E0,0E0,0E0],"parents":[2147483647,0,0,1,1,2,2,3,3,4,4,5,5,6,6,7,7,8,8,9,9,10,10,11,11,12,12,13,13,14,14],"right_children":[2,4,6,8,10,12,14,16,18,20,22,24,26,28,30,-1,-1,-1,-1,-1,-1,-1,-1,-1,-1,-1,-1,-1,-1,-1,-1],"split_conditions":[1E0,2E0,8.5184E4,1E0,3.2E1,4.601229E-1,1E0,3.3E1,1E0,1E0,1.1100807E1,1E0,3.9304E4,1.03823E5,5.4E1,1.9385565E-2,4.2951074E-3,1.9482637E-2,2.8929705E-2,2.419389E-2,6.45236E-3,-9.324934E-4,-3.6225323E-2,-1.3550728E-2,-3.011033E-2,1.3370573E-2,-1.3536225E-3,-2.5483929E-2,-4.0085115E-2,-7.931487E-3,-4.405965E-2],"split_indices":[166,11,55,37,42,162,49,42,24,3,62,6,55,55,41,0,0,0,0,0,0,0,0,0,0,0,0,0,0,0,0],"split_type":[0,0,0,0,0,0,0,0,0,0,0,0,0,0,0,0,0,0,0,0,0,0,0,0,0,0,0,0,0,0,0],"sum_hessian":[3.13689E3,1.4524626E3,1.6844274E3,9.019501E2,5.505126E2,1.078222E3,6.0620526E2,3.207625E2,5.8118756E2,3.2196136E2,2.285512E2,3.9979047E2,6.784316E2,4.3091333E2,1.7529192E2,1.6734204E2,1.5342049E2,2.4346446E2,3.3772308E2,1.2264392E2,1.9931744E2,2.1520253E2,1.3348659E1,1.3450542E2,2.6528506E2,2.6099887E2,4.1743274E2,1.5536008E2,2.7555325E2,1.4503877E2,3.0253157E1],"tree_param":{"num_deleted":"0","num_feature":"196","num_nodes":"31","size_leaf_vector":"1"}},{"base_weights":[2.0826785E-2,5.4930806E-1,-4.4779363E-1,2.606916E-1,7.260433E-1,-2.5292686E-1,-1.1034749E0,-6.292886E-2,4.7211978E-1,4.596831E-1,8.5082465E-1,-4.7477865E-1,2.2493947E-1,-1.2857592E0,-6.2220687E-1,-1.3956467E-2,5.629295E-3,2.5378214E-2,6.5911347E-3,1.7963834E-2,1.5960166E-3,3.209558E-2,2.1609321E-2,-2.5112608E-2,-7.2163744E-3,-4.5453673E-3,1.2680475E-2,-3.9856724E-2,-1.46932425E-2,-7.596278E-3,-3.5607167E-2],"categories":[],"categories_nodes":[],"categories_segments":[],"categories_sizes":[],"default_left":[0,0,0,0,0,0,0,0,0,0,0,0,0,0,0,0,0,0,0,0,0,0,0,0,0,0,0,0,0,0,0],"id":20,"left_children":[1,3,5,7,9,11,13,15,17,19,21,23,25,27,29,-1,-1,-1,-1,-1,-1,-1,-1,-1,-1,-1,-1,-1,-1,-1,-1],"loss_changes":[7.868187E2,7.566321E1,2.1438776E2,3.9133335E1,2.9877747E1,1.3801637E2,3.2217133E1,2.2934721E1,3.2035225E1,1.6642609E1,1.6456146E1,7.481819E1,3.0843956E1,8.004852E0,2.1865795E1,0E0,0E0,0E0,0E0,0E0,0E0,0E0,0E0,0E0,0E0,0E0,0E0,0E0,0E0,0E0,0E0],"parents":[2147483647,0,0,1,1,2,2,3,3,4,4,5,5,6,6,7,7,8,8,9,9,10,10,11,11,12,12,13,13,14,14],"right_children":[2,4,6,8,10,12,14,16,18,20,22,24,26,28,30,-1,-1,-1,-1,-1,-1,-1,-1,-1,-1,-1,-1,-1,-1,-1,-1],"split_conditions":[1E0,8E0,2.209E3,1E0,1E0,1E0,1E0,1.6191201E4,1E0,7.384901E6,1E0,4.6E-1,1E0,6.12E-1,5.2E1,-1.3956467E-2,5.629295E-3,2.5378214E-2,6.5911347E-3,1.7963834E-2,1.5960166E-3,3.209558E-2,2.1609321E-2,-2.5112608E-2,-7.2163744E-3,-4.5453673E-3,1.2680475E-2,-3.9856724E-2,-1.46932425E-2,-7.596278E-3,-3.5607167E-2],"split_indices":[166,44,54,37,7,66,49,20,6,0,3,186,7,186,43,0,0,0,0,0,0,0,0,0,0,0,0,0,0,0,0],"split_type":[0,0,0,0,0,0,0,0,0,0,0,0,0,0,0,0,0,0,0,0,0,0,0,0,0,0,0,0,0,0,0],"sum_hessian":[3.1743098E3,1.4920286E3,1.6822814E3,5.6846375E2,9.235649E2,1.2985787E3,3.8370255E2,2.2450471E2,3.4395898E2,2.9728183E2,6.26283E2,8.872364E2,4.1134238E2,2.762974E2,1.0740514E2,8.614629E1,1.3835843E2,1.3706914E2,2.0688986E2,2.2063339E2,7.664844E1,2.3014923E2,3.961338E2,3.4687894E2,5.403575E2,1.41241E2,2.7010138E2,2.6121548E2,1.5081936E1,6.6368935E1,4.103621E1],"tree_param":{"num_deleted":"0","num_feature":"196","num_nodes":"31","size_leaf_vector":"1"}},{"base_weights":[-5.3252014E-3,5.006318E-1,-4.3359768E-1,1.954525E-1,6.887289E-1,-2.6247475E-1,-1.1757628E0,5.6025577E-1,-2.4556551E-2,8.3809304E-1,4.4276845E-1,-9.182307E-1,-4.7582462E-2,-1.2762674E0,-4.407E-1,1.107921E-3,2.1484077E-2,-1.2555645E-2,5.6013884E-3,3.0263355E-2,2.1448392E-2,7.349333E-3,2.4136312E-2,-2.205244E-2,-3.9788257E-2,-1.1029386E-2,4.60102E-3,5.191774E-3,-3.906871E-2,-3.5219405E-2,2.1410552E-4],"categories":[],"categories_nodes":[],"categories_segments":[],"categories_sizes":[],"default_left":[0,0,0,0,0,0,0,0,0,0,0,0,0,0,0,0,0,0,0,0,0,0,0,0,0,0,0,0,0,0,0],"id":21,"left_children":[1,3,5,7,9,11,13,15,17,19,21,23,25,27,29,-1,-1,-1,-1,-1,-1,-1,-1,-1,-1,-1,-1,-1,-1,-1,-1],"loss_changes":[6.7268677E2,8.126767E1,2.1277777E2,4.3898182E1,3.1473541E1,1.9253223E2,2.203186E1,1.6501854E1,2.8504398E1,1.004657E1,2.3472733E1,2.339215E1,6.648281E1,1.0782196E1,1.3495827E1,0E0,0E0,0E0,0E0,0E0,0E0,0E0,0E0,0E0,0E0,0E0,0E0,0E0,0E0,0E0,0E0],"parents":[2147483647,0,0,1,1,2,2,3,3,4,4,5,5,6,6,7,7,8,8,9,9,10,10,11,11,12,12,13,13,14,14],"right_children":[2,4,6,8,10,12,14,16,18,20,22,24,26,28,30,-1,-1,-1,-1,-1,-1,-1,-1,-1,-1,-1,-1,-1,-1,-1,-1],"split_conditions":[1E0,1.4E1,4.8E1,1E0,3.2E1,4.1217902E-1,9.8E-1,1E0,1E0,1E0,1.26E0,3E0,1.3E1,2.8666666E0,2.016E3,1.107921E-3,2.1484077E-2,-1.2555645E-2,5.6013884E-3,3.0263355E-2,2.1448392E-2,7.349333E-3,2.4136312E-2,-2.205244E-2,-3.9788257E-2,-1.1029386E-2,4.60102E-3,5.191774E-3,-3.906871E-2,-3.5219405E-2,2.1410552E-4],"split_indices":[166,44,14,6,42,162,192,25,153,6,192,11,44,128,27,0,0,0,0,0,0,0,0,0,0,0,0,0,0,0,0],"split_type":[0,0,0,0,0,0,0,0,0,0,0,0,0,0,0,0,0,0,0,0,0,0,0,0,0,0,0,0,0,0,0],"sum_hessian":[3.1018506E3,1.4215752E3,1.6802753E3,5.436397E2,8.779355E2,1.3671829E3,3.1309244E2,2.042038E2,3.394359E2,5.4358307E2,3.3435245E2,3.3607666E2,1.0311062E3,2.742617E2,3.8830772E1,4.7562054E1,1.5664175E2,1.1847747E2,2.2095845E2,2.2355861E2,3.2002444E2,2.1796628E2,1.1638618E2,2.3475226E2,1.013244E2,3.9781015E2,6.33296E2,4.432136E0,2.6982953E2,1.4141667E1,2.4689104E1],"tree_param":{"num_deleted":"0","num_feature":"196","num_nodes":"31","size_leaf_vector":"1"}},{"base_weights":[1.8282888E-3,2.5290465E-1,-7.576479E-1,-6.128988E-1,4.2083362E-1,-9.895733E-1,-2.287342E-1,-4.7041413E-1,-1.0673684E0,1.0779166E-1,6.085622E-1,-7.824992E-1,-1.2721078E0,4.512401E-1,-5.423622E-1,-2.0338627E-2,-3.0734495E-3,-1.4628466E-2,-4.048808E-2,-4.4332193E-3,1.1758277E-2,2.554483E-2,1.36261E-2,1.9971024E-4,-2.6516201E-2,-3.8663615E-2,2.0743495E-2,1.6889047E-2,-2.9680526E-2,1.30731985E-2,-2.3123138E-2],"categories":[],"categories_nodes":[],"categories_segments":[],"categories_sizes":[],"default_left":[0,0,0,0,0,0,0,0,0,0,0,0,1,0,0,0,0,0,0,0,0,0,0,0,0,0,0,0,0,0,0],"id":22,"left_children":[1,3,5,7,9,11,13,15,17,19,21,23,25,27,29,-1,-1,-1,-1,-1,-1,-1,-1,-1,-1,-1,-1,-1,-1,-1,-1],"loss_changes":[5.941018E2,3.408435E2,9.43244E1,2.3588669E1,1.15073364E2,2.9579407E1,5.1102707E1,2.2028465E1,1.3253052E1,5.3688904E1,4.5115326E1,2.5275085E1,8.462097E0,1.2758869E1,3.705816E1,0E0,0E0,0E0,0E0,0E0,0E0,0E0,0E0,0E0,0E0,0E0,0E0,0E0,0E0,0E0,0E0],"parents":[2147483647,0,0,1,1,2,2,3,3,4,4,5,5,6,6,7,7,8,8,9,9,10,10,11,11,12,12,13,13,14,14],"right_children":[2,4,6,8,10,12,14,16,18,20,22,24,26,28,30,-1,-1,-1,-1,-1,-1,-1,-1,-1,-1,-1,-1,-1,-1,-1,-1],"split_conditions":[4.2E1,4.7217903E-1,1E0,3E0,1.3E1,4.8E1,4.4E1,1E0,6.1023E4,1E0,1E0,5.6E1,6E1,2.262E3,-7.479823E-1,-2.0338627E-2,-3.0734495E-3,-1.4628466E-2,-4.048808E-2,-4.4332193E-3,1.1758277E-2,2.554483E-2,1.36261E-2,1.9971024E-4,-2.6516201E-2,-3.8663615E-2,2.0743495E-2,1.6889047E-2,-2.9680526E-2,1.30731985E-2,-2.3123138E-2],"split_indices":[14,162,49,11,44,14,14,13,26,49,152,4,101,105,187,0,0,0,0,0,0,0,0,0,0,0,0,0,0,0,0],"split_type":[0,0,0,0,0,0,0,0,0,0,0,0,0,0,0,0,0,0,0,0,0,0,0,0,0,0,0,0,0,0,0],"sum_hessian":[3.1136484E3,2.3409714E3,7.72677E2,3.7946512E2,1.9615062E3,5.3599664E2,2.3668033E2,2.9137943E2,8.808569E1,7.366349E2,1.2248713E3,3.1271375E2,2.232829E2,7.42588E1,1.6242154E2,1.8522646E2,1.0615298E2,3.0282621E1,5.7803066E1,3.876099E2,3.4902496E2,4.736624E2,7.512089E2,3.5331844E1,2.773819E2,2.2204272E2,1.2401717E0,6.9839165E1,4.419634E0,3.0272596E1,1.3214894E2],"tree_param":{"num_deleted":"0","num_feature":"196","num_nodes":"31","size_leaf_vector":"1"}},{"base_weights":[-5.7820515E-3,2.0342171E-1,-8.815386E-1,-6.0061693E-1,3.8508984E-1,-5.9612924E-1,-1.1503794E0,-1.0285113E0,-2.7775672E-1,1.4339752E-1,6.363942E-1,-8.7733674E-1,-1.74466E-1,-1.2502344E0,-4.6940437E-1,-2.3616487E-2,-4.0932268E-2,-8.7986427E-4,-2.6358746E-2,1.3152231E-2,-3.0820963E-3,2.6737925E-2,1.4517384E-2,-3.4444798E-2,-1.7676951E-2,-1.5189948E-2,1.6428148E-2,-3.9076302E-2,-9.486456E-3,-3.4360558E-2,5.6854874E-4],"categories":[],"categories_nodes":[],"categories_segments":[],"categories_sizes":[],"default_left":[0,0,0,0,0,0,0,0,0,0,0,0,0,0,0,0,0,0,0,0,0,0,0,0,0,0,0,0,0,0,0],"id":23,"left_children":[1,3,5,7,9,11,13,15,17,19,21,23,25,27,29,-1,-1,-1,-1,-1,-1,-1,-1,-1,-1,-1,-1,-1,-1,-1,-1],"loss_changes":[5.694091E2,3.665365E2,4.4619812E1,6.316028E1,1.2397803E2,3.4371872E1,1.9628113E1,1.4059723E1,3.9368732E1,7.6004395E1,3.801941E1,1.2340225E1,2.8992619E1,1.1916473E1,1.4074302E1,0E0,0E0,0E0,0E0,0E0,0E0,0E0,0E0,0E0,0E0,0E0,0E0,0E0,0E0,0E0,0E0],"parents":[2147483647,0,0,1,1,2,2,3,3,4,4,5,5,6,6,7,7,8,8,9,9,10,10,11,11,12,12,13,13,14,14],"right_children":[2,4,6,8,10,12,14,16,18,20,22,24,26,28,30,-1,-1,-1,-1,-1,-1,-1,-1,-1,-1,-1,-1,-1,-1,-1,-1],"split_conditions":[4.4E1,1E0,4.8E1,1.9E1,1.5E1,4.5E1,9.8E-1,1.229218E-1,3.7E1,3.3E1,1E0,1.0342844E-1,5.1597896E0,1.21793E5,6.64E-1,-2.3616487E-2,-4.0932268E-2,-8.7986427E-4,-2.6358746E-2,1.3152231E-2,-3.0820963E-3,2.6737925E-2,1.4517384E-2,-3.4444798E-2,-1.7676951E-2,-1.5189948E-2,1.6428148E-2,-3.9076302E-2,-9.486456E-3,-3.4360558E-2,5.6854874E-4],"split_indices":[14,39,14,44,41,44,192,130,14,14,6,130,141,5,186,0,0,0,0,0,0,0,0,0,0,0,0,0,0,0,0],"split_type":[0,0,0,0,0,0,0,0,0,0,0,0,0,0,0,0,0,0,0,0,0,0,0,0,0,0,0,0,0,0,0],"sum_hessian":[3.1043423E3,2.5063323E3,5.9800995E2,4.610941E2,2.0452383E3,2.926029E2,3.0540704E2,1.967E2,2.6439407E2,1.0441498E3,1.00108844E3,1.7430554E2,1.1829737E2,2.6505008E2,4.0356964E1,1.1735542E2,7.934458E1,1.8831207E2,7.6082016E1,4.7505084E2,5.69099E2,3.7231113E2,6.287773E2,8.745332E1,8.685223E1,8.1576515E1,3.6720856E1,2.503664E2,1.4683682E1,1.6416403E1,2.3940561E1],"tree_param":{"num_deleted":"0","num_feature":"196","num_nodes":"31","size_leaf_vector":"1"}},{"base_weights":[-5.5639884E-3,1.9783407E-1,-8.568018E-1,-4.988796E-1,3.629592E-1,-5.4673624E-1,-1.156478E0,-2.341095E-1,-8.90859E-1,5.969445E-1,1.08953044E-1,-8.388081E-1,-1.431311E-1,-1.2074921E0,-2.5985783E-1,-1.7925583E-2,6.102449E-3,-2.9541174E-2,7.1721906E-3,2.5454612E-2,1.2882484E-2,-4.8588477E-3,9.339772E-3,-3.2071713E-2,-1.3481652E-2,6.368671E-3,-1.8038815E-2,-3.661394E-2,2.1094328E-2,-2.8980112E-2,3.0848889E-2],"categories":[],"categories_nodes":[],"categories_segments":[],"categories_sizes":[],"default_left":[0,0,0,0,0,0,0,0,0,0,0,1,1,1,0,0,0,0,0,0,0,0,0,0,0,0,0,0,0,0,0],"id":24,"left_children":[1,3,5,7,9,11,13,15,17,19,21,23,25,27,29,-1,-1,-1,-1,-1,-1,-1,-1,-1,-1,-1,-1,-1,-1,-1,-1],"loss_changes":[5.347905E2,2.8689923E2,5.4072937E1,4.9006744E1,1.1952472E2,3.4444427E1,1.2981415E1,4.5909424E1,2.0750961E1,4.3345E1,5.3166695E1,1.4269928E1,2.0795227E1,8.054779E0,1.7818352E1,0E0,0E0,0E0,0E0,0E0,0E0,0E0,0E0,0E0,0E0,0E0,0E0,0E0,0E0,0E0,0E0],"parents":[2147483647,0,0,1,1,2,2,3,3,4,4,5,5,6,6,7,7,8,8,9,9,10,10,11,11,12,12,13,13,14,14],"right_children":[2,4,6,8,10,12,14,16,18,20,22,24,26,28,30,-1,-1,-1,-1,-1,-1,-1,-1,-1,-1,-1,-1,-1,-1,-1,-1],"split_conditions":[1.936E3,1.1E1,2.304E3,1.296E3,3.4E1,1E0,1.21793E5,1.9E1,1E0,1E0,1E0,1.7E1,2.448E3,2E1,1E0,-1.7925583E-2,6.102449E-3,-2.9541174E-2,7.1721906E-3,2.5454612E-2,1.2882484E-2,-4.8588477E-3,9.339772E-3,-3.2071713E-2,-1.3481652E-2,6.368671E-3,-1.8038815E-2,-3.661394E-2,2.1094328E-2,-2.8980112E-2,3.0848889E-2],"split_indices":[54,43,54,54,43,51,5,41,182,6,40,101,106,137,180,0,0,0,0,0,0,0,0,0,0,0,0,0,0,0,0],"split_type":[0,0,0,0,0,0,0,0,0,0,0,0,0,0,0,0,0,0,0,0,0,0,0,0,0,0,0,0,0,0,0],"sum_hessian":[3.0851558E3,2.4907168E3,5.9443896E2,4.7639444E2,2.0143224E3,2.9442056E2,3.000184E2,2.8599536E2,1.9039906E2,1.0470131E3,9.673093E2,1.6960608E2,1.24814476E2,2.831557E2,1.686271E1,1.5632982E2,1.2966554E2,1.762262E2,1.4172876E1,4.1637338E2,6.306396E2,4.1307684E2,5.542325E2,1.04803764E2,6.4802315E1,7.035334E1,5.4461136E1,2.81928E2,1.2276871E0,1.1238611E1,5.6241E0],"tree_param":{"num_deleted":"0","num_feature":"196","num_nodes":"31","size_leaf_vector":"1"}},{"base_weights":[2.8532047E-3,4.7019506E-1,-3.9642072E-1,6.2743104E-1,1.8786159E-1,-9.904498E-1,-2.0580706E-1,7.697033E-1,3.9244285E-1,9.444169E-3,5.876954E-1,-6.389996E-1,-1.1259648E0,-5.3417157E-2,-9.585528E-1,2.6517376E-2,1.8437082E-2,1.6395919E-2,-5.5547766E-3,1.1962784E-2,-5.3363107E-3,1.8776067E-2,-4.159466E-2,1.3508442E-2,-2.2279618E-2,-3.4153555E-2,1.7338486E-2,-9.718907E-3,7.833812E-3,-3.3369873E-2,-1.1792291E-2],"categories":[],"categories_nodes":[],"categories_segments":[],"categories_sizes":[],"default_left":[0,0,0,0,0,0,0,0,0,0,0,0,1,0,0,0,0,0,0,0,0,0,0,0,0,0,0,0,0,0,0],"id":25,"left_children":[1,3,5,7,9,11,13,15,17,19,21,23,25,27,29,-1,-1,-1,-1,-1,-1,-1,-1,-1,-1,-1,-1,-1,-1,-1,-1],"loss_changes":[5.7285364E2,6.2431152E1,1.868342E2,2.9633453E1,3.6111656E1,1.7702301E1,1.436398E2,8.851074E0,3.0942497E1,2.5905499E1,1.2651745E1,1.3497688E1,6.9091797E0,8.902631E1,1.7320984E1,0E0,0E0,0E0,0E0,0E0,0E0,0E0,0E0,0E0,0E0,0E0,0E0,0E0,0E0,0E0,0E0],"parents":[2147483647,0,0,1,1,2,2,3,3,4,4,5,5,6,6,7,7,8,8,9,9,10,10,11,11,12,12,13,13,14,14],"right_children":[2,4,6,8,10,12,14,16,18,20,22,24,26,28,30,-1,-1,-1,-1,-1,-1,-1,-1,-1,-1,-1,-1,-1,-1,-1,-1],"split_conditions":[1E0,3.3E1,4.078039E-1,2E0,1E0,3.6E1,4.8E1,1E0,1E0,1E0,1.35883E6,7.941588E3,6.16E0,1E0,6.48E-1,2.6517376E-2,1.8437082E-2,1.6395919E-2,-5.5547766E-3,1.1962784E-2,-5.3363107E-3,1.8776067E-2,-4.159466E-2,1.3508442E-2,-2.2279618E-2,-3.4153555E-2,1.7338486E-2,-9.718907E-3,7.833812E-3,-3.3369873E-2,-1.1792291E-2],"split_indices":[166,42,162,11,180,14,14,65,161,11,129,22,194,51,186,0,0,0,0,0,0,0,0,0,0,0,0,0,0,0,0],"split_type":[0,0,0,0,0,0,0,0,0,0,0,0,0,0,0,0,0,0,0,0,0,0,0,0,0,0,0,0,0,0,0],"sum_hessian":[3.0672554E3,1.4133666E3,1.6538888E3,9.061616E2,5.0720493E2,4.00098E2,1.2537908E3,5.618595E2,3.4430215E2,3.5209967E2,1.5510524E2,1.1398285E2,2.8611514E2,1.0441682E3,2.0962262E2,3.197019E2,2.4215758E2,2.72286E2,7.201615E1,1.14356964E2,2.377427E2,1.5319672E2,1.9085327E0,9.274382E0,1.04708466E2,2.8469733E2,1.4178306E0,5.6181244E2,4.8235574E2,1.6354602E2,4.6076588E1],"tree_param":{"num_deleted":"0","num_feature":"196","num_nodes":"31","size_leaf_vector":"1"}},{"base_weights":[8.525801E-3,3.7200782E-1,-4.394792E-1,-3.3923835E-1,5.399052E-1,-1.0866914E0,-2.5965723E-1,-6.09008E-1,2.4656976E-2,2.5621888E-1,7.148439E-1,-1.2054577E0,-4.9752364E-1,-1.4885299E-1,-1.2070416E0,-2.2126827E-2,2.1702803E-3,5.9697516E-3,-3.153623E-2,-7.1108574E-3,1.2216914E-2,1.6818693E-2,2.602773E-2,-3.702342E-2,5.424532E-3,-2.5471771E-2,1.1664466E-2,-1.1129953E-2,2.4941603E-3,-3.808881E-2,7.3196488E-3],"categories":[],"categories_nodes":[],"categories_segments":[],"categories_sizes":[],"default_left":[0,0,0,0,0,0,0,0,0,0,0,0,0,0,0,0,0,0,0,0,0,0,0,0,0,0,0,0,0,0,0],"id":26,"left_children":[1,3,5,7,9,11,13,15,17,19,21,23,25,27,29,-1,-1,-1,-1,-1,-1,-1,-1,-1,-1,-1,-1,-1,-1,-1,-1],"loss_changes":[4.991956E2,2.0244057E2,1.5904791E2,3.1960472E1,6.750687E1,1.9594025E1,1.1239915E2,1.653614E1,2.604349E1,3.925233E1,1.8901215E1,1.0197235E1,1.6919565E1,4.9831802E1,1.0792755E1,0E0,0E0,0E0,0E0,0E0,0E0,0E0,0E0,0E0,0E0,0E0,0E0,0E0,0E0,0E0,0E0],"parents":[2147483647,0,0,1,1,2,2,3,3,4,4,5,5,6,6,7,7,8,8,9,9,10,10,11,11,12,12,13,13,14,14],"right_children":[2,4,6,8,10,12,14,16,18,20,22,24,26,28,30,-1,-1,-1,-1,-1,-1,-1,-1,-1,-1,-1,-1,-1,-1,-1,-1],"split_conditions":[3.7E1,6.3644224E-1,4.2610884E-1,1E0,1.9E1,2.0697675E0,5.1E1,3.4E1,6.9E1,1E0,1E0,8.332312E0,1.664448E-1,1E0,9.8E-1,-2.2126827E-2,2.1702803E-3,5.9697516E-3,-3.153623E-2,-7.1108574E-3,1.2216914E-2,1.6818693E-2,2.602773E-2,-3.702342E-2,5.424532E-3,-2.5471771E-2,1.1664466E-2,-1.1129953E-2,2.4941603E-3,-3.808881E-2,7.3196488E-3],"split_indices":[14,162,162,13,44,139,43,44,45,25,13,134,130,13,192,0,0,0,0,0,0,0,0,0,0,0,0,0,0,0,0],"split_type":[0,0,0,0,0,0,0,0,0,0,0,0,0,0,0,0,0,0,0,0,0,0,0,0,0,0,0,0,0,0,0],"sum_hessian":[3.0629902E3,1.691462E3,1.3715282E3,3.224748E2,1.3689873E3,2.9644464E2,1.0750835E3,1.8509444E2,1.3738034E2,5.2400586E2,8.4498145E2,2.4518956E2,5.125508E1,9.641271E2,1.1095645E2,1.5600562E2,2.9088816E1,1.19361435E2,1.801891E1,1.22155205E2,4.0185065E2,4.236075E2,4.2137393E2,2.4063599E2,4.5535836E0,3.6961216E1,1.4293864E1,4.9281912E2,4.7130792E2,1.06736984E2,4.219465E0],"tree_param":{"num_deleted":"0","num_feature":"196","num_nodes":"31","size_leaf_vector":"1"}},{"base_weights":[-8.259394E-3,1.9718747E-1,-7.591597E-1,-6.046593E-1,3.5753116E-1,-6.112865E-1,-1.253676E0,-3.5602775E-1,-9.396027E-1,5.8651313E-2,5.406564E-1,-8.281198E-1,-2.4843077E-1,-1.2801424E0,1.8998545E-2,4.112317E-3,-1.8167412E-2,2.9870339E-2,-2.9348794E-2,-5.963143E-3,1.1321608E-2,1.0097912E-2,2.1683358E-2,-3.09869E-2,-1.0497206E-2,2.4814464E-2,-1.2075608E-2,-3.9937828E-2,-1.1757317E-2],"categories":[],"categories_nodes":[],"categories_segments":[],"categories_sizes":[],"default_left":[0,0,0,0,0,0,0,0,0,0,0,0,0,0,0,0,0,0,0,0,0,0,0,0,0,0,0,0,0],"id":27,"left_children":[1,3,5,7,9,11,13,15,17,19,21,23,25,27,-1,-1,-1,-1,-1,-1,-1,-1,-1,-1,-1,-1,-1,-1,-1],"loss_changes":[4.6858218E2,3.0672217E2,4.6216003E1,3.2317398E1,1.0859421E2,3.920424E1,8.658249E0,2.8593218E1,1.3736862E1,6.22278E1,4.5137207E1,2.9981552E1,3.20005E1,5.4666443E0,0E0,0E0,0E0,0E0,0E0,0E0,0E0,0E0,0E0,0E0,0E0,0E0,0E0,0E0,0E0],"parents":[2147483647,0,0,1,1,2,2,3,3,4,4,5,5,6,6,7,7,8,8,9,9,10,10,11,11,12,12,13,13],"right_children":[2,4,6,8,10,12,14,16,18,20,22,24,26,28,-1,-1,-1,-1,-1,-1,-1,-1,-1,-1,-1,-1,-1,-1,-1],"split_conditions":[4.3E1,4.7217903E-1,5.2E1,3.6E1,1.3E1,1E0,3.1E1,6.3758E4,3.4004712E-1,1E0,1E0,7.5551236E-1,5E0,6.3067794E0,1.8998545E-2,4.112317E-3,-1.8167412E-2,2.9870339E-2,-2.9348794E-2,-5.963143E-3,1.1321608E-2,1.0097912E-2,2.1683358E-2,-3.09869E-2,-1.0497206E-2,2.4814464E-2,-1.2075608E-2,-3.9937828E-2,-1.1757317E-2],"split_indices":[14,162,14,14,44,66,23,26,134,165,13,162,128,134,0,0,0,0,0,0,0,0,0,0,0,0,0,0,0],"split_type":[0,0,0,0,0,0,0,0,0,0,0,0,0,0,0,0,0,0,0,0,0,0,0,0,0,0,0,0,0],"sum_hessian":[3.0338508E3,2.382593E3,6.5125793E2,3.9616177E2,1.9864312E3,5.040264E2,1.4723152E2,2.2939285E2,1.6676894E2,7.5590283E2,1.2305283E3,3.139797E2,1.900467E2,1.4575131E2,1.4802209E0,7.688202E1,1.5251083E2,2.463214E0,1.6430573E2,4.1795703E2,3.3794577E2,5.82086E2,6.4844226E2,2.1853404E2,9.5445656E1,2.2862011E1,1.6718471E2,1.3699544E2,8.755867E0],"tree_param":{"num_deleted":"0","num_feature":"196","num_nodes":"29","size_leaf_vector":"1"}},{"base_weights":[-5.398129E-3,4.082568E-1,-3.598034E-1,1.2341122E-1,5.904598E-1,-1.6977794E-1,-9.158433E-1,4.6784547E-1,-7.768162E-2,3.777963E-1,7.450261E-1,-4.0148306E-1,2.6277712E-1,-1.1338602E0,-5.1221067E-1,2.10496E-2,3.2610148E-3,-1.463144E-2,3.9254487E-3,2.1893468E-3,1.6621977E-2,7.740936E-3,2.4611555E-2,-2.1791265E-3,-1.6814476E-2,-4.957276E-3,1.1588457E-2,-3.510199E-2,4.163399E-3,-3.9982856E-3,-2.808872E-2],"categories":[],"categories_nodes":[],"categories_segments":[],"categories_sizes":[],"default_left":[0,0,0,0,0,0,0,0,0,0,0,0,0,0,0,0,0,0,0,0,0,0,0,0,0,0,0,0,0,0,0],"id":28,"left_children":[1,3,5,7,9,11,13,15,17,19,21,23,25,27,29,-1,-1,-1,-1,-1,-1,-1,-1,-1,-1,-1,-1,-1,-1,-1,-1],"loss_changes":[4.4446826E2,7.2305786E1,1.720775E2,3.809887E1,2.7341309E1,1.2237172E2,3.5347412E1,1.6682293E1,2.9789856E1,1.9211586E1,1.7395294E1,4.1284286E1,2.261374E1,1.2683563E1,2.3397892E1,0E0,0E0,0E0,0E0,0E0,0E0,0E0,0E0,0E0,0E0,0E0,0E0,0E0,0E0,0E0,0E0],"parents":[2147483647,0,0,1,1,2,2,3,3,4,4,5,5,6,6,7,7,8,8,9,9,10,10,11,11,12,12,13,13,14,14],"right_children":[2,4,6,8,10,12,14,16,18,20,22,24,26,28,30,-1,-1,-1,-1,-1,-1,-1,-1,-1,-1,-1,-1,-1,-1,-1,-1],"split_conditions":[1E0,1.3E1,2.116E3,1E0,1E0,1E0,1E0,1.156E3,1E0,1E0,5.2E-1,1E0,1E0,8.332312E0,4.02714E6,2.10496E-2,3.2610148E-3,-1.463144E-2,3.9254487E-3,2.1893468E-3,1.6621977E-2,7.740936E-3,2.4611555E-2,-2.1791265E-3,-1.6814476E-2,-4.957276E-3,1.1588457E-2,-3.510199E-2,4.163399E-3,-3.9982856E-3,-2.808872E-2],"split_indices":[166,44,54,6,24,51,66,54,7,13,186,6,25,134,47,0,0,0,0,0,0,0,0,0,0,0,0,0,0,0,0],"split_type":[0,0,0,0,0,0,0,0,0,0,0,0,0,0,0,0,0,0,0,0,0,0,0,0,0,0,0,0,0,0,0],"sum_hessian":[3.029258E3,1.3973511E3,1.6319071E3,5.4655804E2,8.50793E2,1.2178927E3,4.140144E2,2.01312E2,3.4524603E2,3.607298E2,4.9006323E2,7.935308E2,4.2436188E2,2.668413E2,1.471731E2,1.207878E2,8.0524185E1,1.1623838E2,2.2900764E2,1.3329102E2,2.2743877E2,6.666552E1,4.233977E2,2.595379E2,5.339929E2,9.436902E1,3.2999286E2,2.5985748E2,6.9838204E0,7.893116E1,6.824193E1],"tree_param":{"num_deleted":"0","num_feature":"196","num_nodes":"31","size_leaf_vector":"1"}},{"base_weights":[-8.120345E-3,4.067007E-1,-3.5227686E-1,1.448288E-1,5.7568306E-1,-2.0286003E-1,-1.0446329E0,3.7548754E-1,-2.4534732E-1,7.950243E-1,4.3567237E-1,-7.709409E-1,-2.625533E-2,1.833593E-1,-1.0868969E0,7.573057E-4,1.8293234E-2,-4.0409747E-3,-6.0063098E-2,2.5092687E-2,4.6462137E-3,2.1909544E-2,7.726822E-3,-1.1229326E-2,-3.040892E-2,8.427789E-3,-5.8246227E-3,-3.131114E-2,4.0432453E-2,8.950813E-3,-3.3320833E-2],"categories":[],"categories_nodes":[],"categories_segments":[],"categories_sizes":[],"default_left":[0,0,0,0,0,0,0,0,0,0,0,0,0,0,0,0,0,0,0,0,0,0,0,0,0,0,0,0,0,0,0],"id":29,"left_children":[1,3,5,7,9,11,13,15,17,19,21,23,25,27,29,-1,-1,-1,-1,-1,-1,-1,-1,-1,-1,-1,-1,-1,-1,-1,-1],"loss_changes":[4.2873645E2,5.994696E1,1.6922942E2,4.8426083E1,2.4597748E1,1.3543205E2,1.5593384E1,2.7521732E1,3.7887947E1,7.9716034E0,2.6144943E1,2.9924759E1,5.32986E1,1.7062605E1,9.75885E0,0E0,0E0,0E0,0E0,0E0,0E0,0E0,0E0,0E0,0E0,0E0,0E0,0E0,0E0,0E0,0E0],"parents":[2147483647,0,0,1,1,2,2,3,3,4,4,5,5,6,6,7,7,8,8,9,9,10,10,11,11,12,12,13,13,14,14],"right_children":[2,4,6,8,10,12,14,16,18,20,22,24,26,28,30,-1,-1,-1,-1,-1,-1,-1,-1,-1,-1,-1,-1,-1,-1,-1,-1],"split_conditions":[1E0,1.3E1,4.8E1,3.5E1,1E0,4.1E-1,6.223818E-3,1.9E1,6.529368E4,3.9E1,1E0,3.6E1,1E0,3.5873617E4,2.8666666E0,7.573057E-4,1.8293234E-2,-4.0409747E-3,-6.0063098E-2,2.5092687E-2,4.6462137E-3,2.1909544E-2,7.726822E-3,-1.1229326E-2,-3.040892E-2,8.427789E-3,-5.8246227E-3,-3.131114E-2,4.0432453E-2,8.950813E-3,-3.3320833E-2],"split_indices":[166,44,14,14,6,162,140,41,20,42,3,14,6,22,128,0,0,0,0,0,0,0,0,0,0,0,0,0,0,0,0],"split_type":[0,0,0,0,0,0,0,0,0,0,0,0,0,0,0,0,0,0,0,0,0,0,0,0,0,0,0,0,0,0,0],"sum_hessian":[3.0005835E3,1.3601503E3,1.6404332E3,5.350296E2,8.2512067E2,1.3509696E3,2.8946362E2,3.3670697E2,1.9832263E2,3.1834253E2,5.067781E2,3.1897888E2,1.0319907E3,9.276394E0,2.8018723E2,1.359081E2,2.0079889E2,1.880394E2,1.0283246E1,2.9838602E2,1.9956535E1,1.8901431E2,3.1776382E2,1.22620056E2,1.9635881E2,3.6382397E2,6.6816675E2,4.4723663E0,4.8040276E0,4.2010493E0,2.7598618E2],"tree_param":{"num_deleted":"0","num_feature":"196","num_nodes":"31","size_leaf_vector":"1"}},{"base_weights":[2.3645987E-3,2.166801E-1,-6.6867006E-1,-4.4287667E-1,3.5449037E-1,-9.097854E-1,-1.3218656E-1,-7.3082423E-1,-1.9285783E-1,9.0490386E-2,5.235426E-1,-6.6647786E-1,-1.180184E0,1.7380892E-1,-7.1660715E-1,-1.5050593E-2,-3.1677026E-2,4.218569E-3,-1.4682544E-2,6.6507654E-3,-9.283226E-3,1.9032372E-2,5.6349393E-3,-1.3555567E-2,-3.0086191E-2,4.2979582E-4,-3.588384E-2,-1.1340656E-2,1.567732E-2,-7.936481E-3,-3.8260072E-2],"categories":[],"categories_nodes":[],"categories_segments":[],"categories_sizes":[],"default_left":[0,0,0,0,0,0,0,0,0,0,0,0,0,0,0,0,0,0,0,0,0,0,0,0,0,0,0,0,0,0,0],"id":30,"left_children":[1,3,5,7,9,11,13,15,17,19,21,23,25,27,29,-1,-1,-1,-1,-1,-1,-1,-1,-1,-1,-1,-1,-1,-1,-1,-1],"loss_changes":[4.3246735E2,2.0743317E2,9.371521E1,2.7958885E1,8.399672E1,3.1473541E1,4.100418E1,1.2463455E1,2.1265182E1,3.8799946E1,4.2324432E1,1.8329514E1,4.6833496E0,2.91678E1,1.9027885E1,0E0,0E0,0E0,0E0,0E0,0E0,0E0,0E0,0E0,0E0,0E0,0E0,0E0,0E0,0E0,0E0],"parents":[2147483647,0,0,1,1,2,2,3,3,4,4,5,5,6,6,7,7,8,8,9,9,10,10,11,11,12,12,13,13,14,14],"right_children":[2,4,6,8,10,12,14,16,18,20,22,24,26,28,30,-1,-1,-1,-1,-1,-1,-1,-1,-1,-1,-1,-1,-1,-1,-1,-1],"split_conditions":[4.2E1,4.82831E-1,1E0,1.9E1,1.3E1,4.7E1,4.8E1,2.3128457E0,2E1,1E0,3.7E1,1.0226256E0,9.476697E0,1E0,7E0,-1.5050593E-2,-3.1677026E-2,4.218569E-3,-1.4682544E-2,6.6507654E-3,-9.283226E-3,1.9032372E-2,5.6349393E-3,-1.3555567E-2,-3.0086191E-2,4.2979582E-4,-3.588384E-2,-1.1340656E-2,1.567732E-2,-7.936481E-3,-3.8260072E-2],"split_indices":[14,162,49,44,44,14,14,134,42,161,14,142,61,40,28,0,0,0,0,0,0,0,0,0,0,0,0,0,0,0,0],"split_type":[0,0,0,0,0,0,0,0,0,0,0,0,0,0,0,0,0,0,0,0,0,0,0,0,0,0,0,0,0,0,0],"sum_hessian":[3.005329E3,2.278809E3,7.2652014E2,3.9301404E2,1.885795E3,5.0026974E2,2.2625037E2,1.8098181E2,2.1203224E2,7.3756604E2,1.148229E3,2.662474E2,2.3402235E2,1.488102E2,7.744017E1,1.085058E2,7.247601E1,9.968527E1,1.1234697E2,5.563613E2,1.8120474E2,8.622262E2,2.8600278E2,1.6478166E2,1.0146575E2,2.7746978E0,2.3124765E2,5.7280697E1,9.15295E1,4.4120564E1,3.331961E1],"tree_param":{"num_deleted":"0","num_feature":"196","num_nodes":"31","size_leaf_vector":"1"}},{"base_weights":[8.809664E-3,2.8391787E-1,-4.745676E-1,-3.184317E-1,4.2352253E-1,-7.360874E-1,3.9263714E-2,-6.8361044E-1,-4.4133745E-2,6.832035E-1,2.6206E-1,-5.5007803E-1,-1.1080048E0,1.5997832E-1,-1.0021229E0,-2.9565107E-2,-9.337213E-3,-3.7149884E-2,3.0739713E-3,9.012791E-3,2.3734175E-2,7.571255E-4,1.3466542E-2,-1.1520877E-2,-2.55113E-2,-3.4065258E-2,1.1434554E-3,-6.7082094E-3,1.2989165E-2,-3.912686E-2,1.4047237E-2],"categories":[],"categories_nodes":[],"categories_segments":[],"categories_sizes":[],"default_left":[0,0,0,0,0,0,0,0,0,0,0,0,0,0,0,0,0,0,0,0,0,0,0,0,0,0,0,0,0,0,0],"id":31,"left_children":[1,3,5,7,9,11,13,15,17,19,21,23,25,27,29,-1,-1,-1,-1,-1,-1,-1,-1,-1,-1,-1,-1,-1,-1,-1,-1],"loss_changes":[4.0057956E2,1.6168396E2,1.4701352E2,3.5999958E1,6.491815E1,4.886728E1,4.6422005E1,1.66213E1,3.6923683E1,2.3982758E1,4.2499413E1,2.3469437E1,7.7794495E0,3.4956715E1,1.8017822E1,0E0,0E0,0E0,0E0,0E0,0E0,0E0,0E0,0E0,0E0,0E0,0E0,0E0,0E0,0E0,0E0],"parents":[2147483647,0,0,1,1,2,2,3,3,4,4,5,5,6,6,7,7,8,8,9,9,10,10,11,11,12,12,13,13,14,14],"right_children":[2,4,6,8,10,12,14,16,18,20,22,24,26,28,30,-1,-1,-1,-1,-1,-1,-1,-1,-1,-1,-1,-1,-1,-1,-1,-1],"split_conditions":[3.9E1,1.1E1,1E0,1.9E1,1E0,4.7E1,5.2E1,1E0,5E0,1E0,1E0,2E0,1.06E0,1E0,9.1658E4,-2.9565107E-2,-9.337213E-3,-3.7149884E-2,3.0739713E-3,9.012791E-3,2.3734175E-2,7.571255E-4,1.3466542E-2,-1.1520877E-2,-2.55113E-2,-3.4065258E-2,1.1434554E-3,-6.7082094E-3,1.2989165E-2,-3.912686E-2,1.4047237E-2],"split_indices":[14,43,49,44,6,14,14,13,29,25,24,24,192,40,5,0,0,0,0,0,0,0,0,0,0,0,0,0,0,0,0],"split_type":[0,0,0,0,0,0,0,0,0,0,0,0,0,0,0,0,0,0,0,0,0,0,0,0,0,0,0,0,0,0,0],"sum_hessian":[3.0100276E3,1.9189641E3,1.0910635E3,3.6039432E2,1.5585698E3,7.23019E2,3.6804456E2,1.5333003E2,2.0706429E2,5.952789E2,9.6329095E2,4.8462344E2,2.3839551E2,3.3104184E2,3.7002705E1,8.314854E1,7.01815E1,2.1765284E1,1.85299E2,1.3224263E2,4.6303625E2,4.258505E2,5.374405E2,3.1434293E2,1.7028052E2,2.3313583E2,5.2596745E0,1.3730571E2,1.9373611E2,3.0977299E1,6.0254083E0],"tree_param":{"num_deleted":"0","num_feature":"196","num_nodes":"31","size_leaf_vector":"1"}},{"base_weights":[8.664593E-3,4.0475398E-1,-3.2960403E-1,1.19830966E-1,5.47832E-1,-1.9977792E-1,-9.52571E-1,-1.5387961E-1,3.2756668E-1,6.9682723E-1,3.0209875E-1,-4.0369502E-1,2.1298397E-1,2.7833322E-1,-9.947585E-1,1.0052081E-2,-1.3454885E-2,1.7180594E-2,1.14901E-3,2.7199904E-2,1.7271155E-2,-8.219363E-3,1.2204264E-2,-5.017427E-3,-2.1061474E-2,8.883787E-3,-1.0587374E-2,-2.9776882E-2,4.262745E-2,-3.475362E-2,-2.0499244E-2],"categories":[],"categories_nodes":[],"categories_segments":[],"categories_sizes":[],"default_left":[0,0,0,0,0,0,0,0,0,0,0,0,0,0,0,0,0,0,0,0,0,0,0,0,0,0,0,0,0,0,0],"id":32,"left_children":[1,3,5,7,9,11,13,15,17,19,21,23,25,27,29,-1,-1,-1,-1,-1,-1,-1,-1,-1,-1,-1,-1,-1,-1,-1,-1],"loss_changes":[4.011731E2,5.5973495E1,1.3002414E2,2.6464577E1,3.3045166E1,1.127923E2,1.4977509E1,2.9060066E1,1.854452E1,1.3394409E1,2.1213568E1,6.281981E1,2.0927101E1,1.652192E1,1.2159149E1,0E0,0E0,0E0,0E0,0E0,0E0,0E0,0E0,0E0,0E0,0E0,0E0,0E0,0E0,0E0,0E0],"parents":[2147483647,0,0,1,1,2,2,3,3,4,4,5,5,6,6,7,7,8,8,9,9,10,10,11,11,12,12,13,13,14,14],"right_children":[2,4,6,8,10,12,14,16,18,20,22,24,26,28,30,-1,-1,-1,-1,-1,-1,-1,-1,-1,-1,-1,-1,-1,-1,-1,-1],"split_conditions":[1E0,1E0,3.8918202E0,1E0,2E0,1E0,6.223818E-3,1E0,3.1E1,1E0,3E1,2E0,4.4E1,3.5873617E4,1E0,1.0052081E-2,-1.3454885E-2,1.7180594E-2,1.14901E-3,2.7199904E-2,1.7271155E-2,-8.219363E-3,1.2204264E-2,-5.017427E-3,-2.1061474E-2,8.883787E-3,-1.0587374E-2,-2.9776882E-2,4.262745E-2,-3.475362E-2,-2.0499244E-2],"split_indices":[166,7,57,66,11,66,140,6,42,3,45,11,42,22,66,0,0,0,0,0,0,0,0,0,0,0,0,0,0,0,0],"split_type":[0,0,0,0,0,0,0,0,0,0,0,0,0,0,0,0,0,0,0,0,0,0,0,0,0,0,0,0,0,0,0],"sum_hessian":[2.9913909E3,1.3781699E3,1.6132208E3,4.6214148E2,9.160285E2,1.3367994E3,2.7642142E2,1.9900476E2,2.6313672E2,5.680843E2,3.4794418E2,8.952082E2,4.4159122E2,8.707639E0,2.677138E2,7.4403595E1,1.24601166E2,1.4130722E2,1.21829506E2,2.0444914E2,3.6363516E2,5.2738304E1,2.9520587E2,5.007915E2,3.944167E2,3.8603668E2,5.5554527E1,4.0943766E0,4.613262E0,1.7279686E2,9.491693E1],"tree_param":{"num_deleted":"0","num_feature":"196","num_nodes":"31","size_leaf_vector":"1"}},{"base_weights":[-1.4616835E-2,3.0693308E-1,-4.1672388E-1,4.8879232E-2,6.082194E-1,-9.90997E-1,-2.577223E-1,-3.1020573E-1,2.9658136E-1,3.7643757E-1,8.3837104E-1,2.6840448E-1,-1.024194E0,-1.16725296E-1,-8.8358957E-1,4.001363E-3,-1.678866E-2,-1.2844631E-3,1.434247E-2,2.6280875E-3,1.7117605E-2,9.999378E-3,2.6319666E-2,-2.8233195E-2,4.5097616E-2,-2.0100594E-2,-3.4388836E-2,-1.0415452E-2,4.298107E-3,-2.9839152E-2,-8.153086E-3],"categories":[],"categories_nodes":[],"categories_segments":[],"categories_sizes":[],"default_left":[0,0,0,0,0,0,0,0,0,0,0,0,0,0,0,0,0,0,0,0,0,0,0,0,0,0,0,0,0,0,0],"id":33,"left_children":[1,3,5,7,9,11,13,15,17,19,21,23,25,27,29,-1,-1,-1,-1,-1,-1,-1,-1,-1,-1,-1,-1,-1,-1,-1,-1],"loss_changes":[3.8088464E2,1.27014694E2,1.1887489E2,7.868852E1,3.9504578E1,1.2396606E1,9.026699E1,4.0089764E1,3.2376877E1,2.0981297E1,6.6442566E0,1.4118355E1,1.0418854E1,5.0433327E1,1.2063477E1,0E0,0E0,0E0,0E0,0E0,0E0,0E0,0E0,0E0,0E0,0E0,0E0,0E0,0E0,0E0,0E0],"parents":[2147483647,0,0,1,1,2,2,3,3,4,4,5,5,6,6,7,7,8,8,9,9,10,10,11,11,12,12,13,13,14,14],"right_children":[2,4,6,8,10,12,14,16,18,20,22,24,26,28,30,-1,-1,-1,-1,-1,-1,-1,-1,-1,-1,-1,-1,-1,-1,-1,-1],"split_conditions":[3.7E1,1E0,4.2904013E-1,1.9E1,1E0,2.012E3,4.8E1,1E0,1E0,1.9E1,1.462E3,3.988401E-1,8E0,1E0,9.8E-1,4.001363E-3,-1.678866E-2,-1.2844631E-3,1.434247E-2,2.6280875E-3,1.7117605E-2,9.999378E-3,2.6319666E-2,-2.8233195E-2,4.5097616E-2,-2.0100594E-2,-3.4388836E-2,-1.0415452E-2,4.298107E-3,-2.9839152E-2,-8.153086E-3],"split_indices":[14,66,162,44,13,18,14,6,7,44,106,162,29,13,192,0,0,0,0,0,0,0,0,0,0,0,0,0,0,0,0],"split_type":[0,0,0,0,0,0,0,0,0,0,0,0,0,0,0,0,0,0,0,0,0,0,0,0,0,0,0,0,0,0,0],"sum_hessian":[2.9429512E3,1.6350879E3,1.3078633E3,8.820321E2,7.530558E2,2.817363E2,1.0261271E3,3.5949097E2,5.2254114E2,3.7750412E2,3.7555167E2,6.791061E0,2.7494522E2,8.3908405E2,1.8704295E2,1.2915886E2,2.3033212E2,1.8179893E2,3.4074222E2,1.5294858E2,2.2455554E2,2.804786E1,3.4750378E2,3.4808085E0,3.3102522E0,7.300047E1,2.0194475E2,4.4519424E2,3.9388983E2,1.5733583E2,2.9707127E1],"tree_param":{"num_deleted":"0","num_feature":"196","num_nodes":"31","size_leaf_vector":"1"}},{"base_weights":[8.600676E-3,2.0805544E-1,-6.087189E-1,-4.4387344E-1,3.3373633E-1,-8.470557E-1,-2.2672439E-1,-6.4217645E-1,-1.0159899E-1,-2.974011E-2,4.4057584E-1,-9.2308474E-1,2.0491593E-1,9.118804E-2,-7.046889E-1,-2.1208659E-2,4.1027457E-2,4.6548364E-3,-2.7844032E-2,3.7645744E-3,-1.3309743E-2,2.0903205E-2,8.642164E-3,-3.7666034E-2,-2.3303034E-2,2.437853E-2,-2.0422975E-2,6.1989487E-3,-3.5635274E-2,-2.7214343E-4,-2.7687706E-2],"categories":[],"categories_nodes":[],"categories_segments":[],"categories_sizes":[],"default_left":[0,0,0,0,0,0,0,0,0,0,0,0,0,0,0,0,0,0,0,0,0,0,0,0,0,0,0,0,0,0,0],"id":34,"left_children":[1,3,5,7,9,11,13,15,17,19,21,23,25,27,29,-1,-1,-1,-1,-1,-1,-1,-1,-1,-1,-1,-1,-1,-1,-1,-1],"loss_changes":[3.6929288E2,1.8597778E2,6.613464E1,2.461065E1,7.400113E1,3.643387E1,4.3338303E1,3.1098083E1,2.9362846E1,2.7945927E1,5.692386E1,1.8628418E1,1.7531847E1,2.5307772E1,1.698383E1,0E0,0E0,0E0,0E0,0E0,0E0,0E0,0E0,0E0,0E0,0E0,0E0,0E0,0E0,0E0,0E0],"parents":[2147483647,0,0,1,1,2,2,3,3,4,4,5,5,6,6,7,7,8,8,9,9,10,10,11,11,12,12,13,13,14,14],"right_children":[2,4,6,8,10,12,14,16,18,20,22,24,26,28,30,-1,-1,-1,-1,-1,-1,-1,-1,-1,-1,-1,-1,-1,-1,-1,-1],"split_conditions":[3.7612002E0,4.7217903E-1,1E0,1.8E1,1E0,8.331089E-1,4.7E1,1.744013E6,9.5058E4,3.7E1,1E0,3.8719642E-1,1E0,8.6E1,1.6069998E0,-2.1208659E-2,4.1027457E-2,4.6548364E-3,-2.7844032E-2,3.7645744E-3,-1.3309743E-2,2.0903205E-2,8.642164E-3,-3.7666034E-2,-2.3303034E-2,2.437853E-2,-2.0422975E-2,6.1989487E-3,-3.5635274E-2,-2.7214343E-4,-2.7687706E-2],"split_indices":[57,162,66,41,160,162,43,129,26,43,152,162,119,128,141,0,0,0,0,0,0,0,0,0,0,0,0,0,0,0,0],"split_type":[0,0,0,0,0,0,0,0,0,0,0,0,0,0,0,0,0,0,0,0,0,0,0,0,0,0,0,0,0,0,0],"sum_hessian":[2.9974595E3,2.2664702E3,7.3098914E2,3.6543756E2,1.9010327E3,4.4872125E2,2.8226788E2,2.3016107E2,1.352765E2,4.315033E2,1.4695294E3,4.1886182E2,2.985946E1,1.6982549E2,1.124424E2,2.239588E2,6.2022643E0,1.03782326E2,3.1494173E1,3.140122E2,1.1749109E2,5.46569E2,9.2296045E2,1.2472141E2,2.9414038E2,1.7952063E1,1.1907399E1,1.5697516E2,1.28503275E1,2.7434774E1,8.500762E1],"tree_param":{"num_deleted":"0","num_feature":"196","num_nodes":"31","size_leaf_vector":"1"}},{"base_weights":[1.8086953E-2,2.7384025E-1,-4.421563E-1,-3.3347437E-1,4.244671E-1,-3.2682016E-1,-1.1269289E0,-7.42114E-1,-7.65969E-2,6.553642E-1,2.8014287E-1,-5.5916065E-1,-1.1608567E-2,-1.1959633E0,-2.6001856E-1,-3.147902E-2,-7.857994E-3,-1.56731E-2,8.832338E-3,7.283216E-3,2.299941E-2,1.6137948E-3,1.2843688E-2,-2.7770562E-2,-1.2397882E-2,-9.524841E-3,1.2990509E-2,2.5443496E-2,-3.674491E-2,2.6429027E-2,-3.28926E-2],"categories":[],"categories_nodes":[],"categories_segments":[],"categories_sizes":[],"default_left":[0,0,0,0,0,0,0,0,0,0,0,0,0,0,0,0,0,0,0,0,0,0,0,0,0,0,0,0,0,0,0],"id":35,"left_children":[1,3,5,7,9,11,13,15,17,19,21,23,25,27,29,-1,-1,-1,-1,-1,-1,-1,-1,-1,-1,-1,-1,-1,-1,-1,-1],"loss_changes":[3.4572104E2,1.7296848E2,8.197174E1,3.9145813E1,4.9967712E1,6.574595E1,8.201706E0,2.057605E1,3.8699905E1,2.6083817E1,3.1119118E1,2.6820648E1,5.2291504E1,9.5082245E0,1.3780894E1,0E0,0E0,0E0,0E0,0E0,0E0,0E0,0E0,0E0,0E0,0E0,0E0,0E0,0E0,0E0,0E0],"parents":[2147483647,0,0,1,1,2,2,3,3,4,4,5,5,6,6,7,7,8,8,9,9,10,10,11,11,12,12,13,13,14,14],"right_children":[2,4,6,8,10,12,14,16,18,20,22,24,26,28,30,-1,-1,-1,-1,-1,-1,-1,-1,-1,-1,-1,-1,-1,-1,-1,-1],"split_conditions":[3.9E1,6.3644224E-1,5.1E1,1E0,1E0,1E0,1.1575825E1,2.4E1,2.0417316E4,1E0,1.9E1,4.0110883E-1,4E1,2.8666666E0,3.439592E6,-3.147902E-2,-7.857994E-3,-1.56731E-2,8.832338E-3,7.283216E-3,2.299941E-2,1.6137948E-3,1.2843688E-2,-2.7770562E-2,-1.2397882E-2,-9.524841E-3,1.2990509E-2,2.5443496E-2,-3.674491E-2,2.6429027E-2,-3.28926E-2],"split_indices":[14,162,14,7,152,51,63,41,22,25,44,162,41,128,47,0,0,0,0,0,0,0,0,0,0,0,0,0,0,0,0],"split_type":[0,0,0,0,0,0,0,0,0,0,0,0,0,0,0,0,0,0,0,0,0,0,0,0,0,0,0,0,0,0,0],"sum_hessian":[2.9347898E3,1.8871984E3,1.0475914E3,3.7437872E2,1.5128197E3,8.9857935E2,1.4901212E2,1.4314407E2,2.3123466E2,5.793855E2,9.3343414E2,5.162184E2,3.8236096E2,1.3727481E2,1.1737305E1,8.606173E1,5.7082348E1,1.05113266E2,1.2612139E2,1.2418282E2,4.5520267E2,3.701449E2,5.6328925E2,1.446788E2,3.7153955E2,2.2710022E2,1.5526074E2,1.2307878E0,1.3604404E2,4.8005576E0,6.9367476E0],"tree_param":{"num_deleted":"0","num_feature":"196","num_nodes":"31","size_leaf_vector":"1"}},{"base_weights":[1.4429875E-2,1.60135E-1,-6.4512E-1,-6.63636E-2,5.1335466E-1,-8.420529E-1,-2.0052104E-1,-2.4968123E-1,2.1645978E-1,2.6146954E-1,6.390379E-1,-5.9006035E-1,-1.0159701E0,-5.0955966E-2,-3.64466E-2,1.5648572E-3,-1.2877471E-2,1.0272518E-2,-8.641942E-3,1.7635709E-2,1.9080717E-3,2.6403006E-2,1.4852172E-2,-1.344316E-2,-3.960492E-2,-3.847412E-2,-2.5090799E-2,4.066838E-3,-2.574693E-2],"categories":[],"categories_nodes":[],"categories_segments":[],"categories_sizes":[],"default_left":[0,0,0,0,0,0,0,0,0,0,0,1,0,0,0,0,0,0,0,0,0,0,0,0,0,0,0,0,0],"id":36,"left_children":[1,3,5,7,9,11,13,15,17,19,21,23,25,27,-1,-1,-1,-1,-1,-1,-1,-1,-1,-1,-1,-1,-1,-1,-1],"loss_changes":[2.8195038E2,1.9252213E2,4.597586E1,7.6070885E1,2.9300034E1,1.4869843E1,2.4617405E1,4.834418E1,3.673526E1,2.0163912E1,2.0767654E1,1.4685116E1,8.302414E0,2.2231647E1,0E0,0E0,0E0,0E0,0E0,0E0,0E0,0E0,0E0,0E0,0E0,0E0,0E0,0E0,0E0],"parents":[2147483647,0,0,1,1,2,2,3,3,4,4,5,5,6,6,7,7,8,8,9,9,10,10,11,11,12,12,13,13],"right_children":[2,4,6,8,10,12,14,16,18,20,22,24,26,28,-1,-1,-1,-1,-1,-1,-1,-1,-1,-1,-1,-1,-1,-1,-1],"split_conditions":[1.936E3,1E0,1E0,1E0,1E0,2.209E3,5.5E1,1.024E3,3.9E1,1E0,1E0,2.5E1,1.8262648E4,1E0,-3.64466E-2,1.5648572E-3,-1.2877471E-2,1.0272518E-2,-8.641942E-3,1.7635709E-2,1.9080717E-3,2.6403006E-2,1.4852172E-2,-1.344316E-2,-3.960492E-2,-3.847412E-2,-2.5090799E-2,4.066838E-3,-2.574693E-2],"split_indices":[54,49,49,51,7,54,43,54,43,152,3,101,22,92,0,0,0,0,0,0,0,0,0,0,0,0,0,0,0],"split_type":[0,0,0,0,0,0,0,0,0,0,0,0,0,0,0,0,0,0,0,0,0,0,0,0,0,0,0,0,0],"sum_hessian":[2.9325286E3,2.4030552E3,5.294734E2,1.4643677E3,9.3868756E2,3.657099E2,1.6376349E2,8.891417E2,5.7522595E2,3.1451917E2,6.241684E2,1.5232275E2,2.1338713E2,1.4414615E2,1.9617344E1,3.3126923E2,5.5787244E2,4.6114478E2,1.14081184E2,1.1728422E2,1.9723495E2,2.3058513E2,3.9358325E2,1.2957228E2,2.2750471E1,8.225167E1,1.3113547E2,1.1771547E2,2.6430676E1],"tree_param":{"num_deleted":"0","num_feature":"196","num_nodes":"29","size_leaf_vector":"1"}},{"base_weights":[1.791314E-2,1.9986771E-1,-5.506054E-1,-6.280421E-2,4.7555003E-1,-7.761368E-1,-6.778535E-2,-2.1194741E-1,2.918134E-1,6.9580966E-1,3.3590811E-1,-5.101695E-1,-1.1041298E0,3.232377E-2,-3.5837412E-2,-1.6628686E-2,-2.8438258E-3,1.434977E-2,-3.2328046E-3,2.3772802E-2,1.2832072E-2,2.6374501E-3,1.3847079E-2,-2.3303723E-2,-2.061541E-5,1.3702653E-3,-3.4091182E-2,3.1771432E-3,-3.341773E-2],"categories":[],"categories_nodes":[],"categories_segments":[],"categories_sizes":[],"default_left":[0,0,0,0,0,0,0,0,0,0,0,0,0,1,0,0,0,0,0,0,0,0,0,0,0,0,0,0,0],"id":37,"left_children":[1,3,5,7,9,11,13,15,17,19,21,23,25,27,-1,-1,-1,-1,-1,-1,-1,-1,-1,-1,-1,-1,-1,-1,-1],"loss_changes":[3.0235007E2,1.6055353E2,7.685945E1,6.008912E1,3.268106E1,4.091571E1,2.5999035E1,3.1844494E1,2.5182457E1,1.0019165E1,2.050132E1,3.633397E1,8.195526E0,1.7576784E1,0E0,0E0,0E0,0E0,0E0,0E0,0E0,0E0,0E0,0E0,0E0,0E0,0E0,0E0,0E0],"parents":[2147483647,0,0,1,1,2,2,3,3,4,4,5,5,6,6,7,7,8,8,9,9,10,10,11,11,12,12,13,13],"right_children":[2,4,6,8,10,12,14,16,18,20,22,24,26,28,-1,-1,-1,-1,-1,-1,-1,-1,-1,-1,-1,-1,-1,-1,-1],"split_conditions":[4.2E1,1E0,1E0,1E0,1E0,4.7E1,5.5E1,1E0,3.6E1,3.7E1,1E0,1E0,9.092979E-3,3.1E1,-3.5837412E-2,-1.6628686E-2,-2.8438258E-3,1.434977E-2,-3.2328046E-3,2.3772802E-2,1.2832072E-2,2.6374501E-3,1.3847079E-2,-2.3303723E-2,-2.061541E-5,1.3702653E-3,-3.4091182E-2,3.1771432E-3,-3.341773E-2],"split_indices":[14,51,49,49,152,14,14,25,14,14,153,66,193,101,0,0,0,0,0,0,0,0,0,0,0,0,0,0,0],"split_type":[0,0,0,0,0,0,0,0,0,0,0,0,0,0,0,0,0,0,0,0,0,0,0,0,0,0,0,0,0],"sum_hessian":[2.9209949E3,2.2137908E3,7.0720404E2,1.1336766E3,1.0801141E3,4.811184E2,2.260856E2,7.989392E2,3.3473746E2,4.163109E2,6.638033E2,2.6798743E2,2.1313101E2,2.0859276E2,1.7492855E1,2.0201385E2,5.9692535E2,2.2855296E2,1.0618451E2,3.0371246E2,1.12598465E2,2.2446355E2,4.3933972E2,1.7519865E2,9.2788765E1,5.495373E0,2.0763564E2,1.9735474E2,1.1238015E1],"tree_param":{"num_deleted":"0","num_feature":"196","num_nodes":"29","size_leaf_vector":"1"}},{"base_weights":[7.1156765E-3,1.5219863E-1,-6.68887E-1,-4.079002E-1,2.677203E-1,-3.6647826E-2,-5.378497E-1,-6.673385E-1,-1.7309225E-1,1.515279E-3,4.093787E-1,-4.2421463E-1,-1.1775349E0,-2.7712377E-2,-1.1920803E-2,3.8937812E-3,-1.7232135E-2,-6.223295E-3,6.928907E-3,2.0613046E-2,7.880768E-3,1.1422279E-2,-1.5667966E-2,-3.7096024E-2,-8.102609E-3],"categories":[],"categories_nodes":[],"categories_segments":[],"categories_sizes":[],"default_left":[0,0,0,0,0,0,0,0,0,0,0,0,0,0,0,0,0,0,0,0,0,0,0,0,0],"id":38,"left_children":[1,3,5,7,9,-1,11,13,15,17,19,21,23,-1,-1,-1,-1,-1,-1,-1,-1,-1,-1,-1,-1],"loss_changes":[2.852776E2,1.5514845E2,3.5854233E1,2.4592484E1,7.48454E1,0E0,2.930793E1,1.2565338E1,2.6627756E1,3.3236485E1,5.2320007E1,2.844522E1,2.4522552E0,0E0,0E0,0E0,0E0,0E0,0E0,0E0,0E0,0E0,0E0,0E0,0E0],"parents":[2147483647,0,0,1,1,2,2,3,3,4,4,6,6,7,7,8,8,9,9,10,10,11,11,12,12],"right_children":[2,4,6,8,10,-1,12,14,16,18,20,22,24,-1,-1,-1,-1,-1,-1,-1,-1,-1,-1,-1,-1],"split_conditions":[4.4E1,4.7217903E-1,3.8719642E-1,1.9E1,1E0,-3.6647826E-2,5.4E1,1E0,1E0,1.8E1,1E0,5.125E0,9.1E-1,-2.7712377E-2,-1.1920803E-2,3.8937812E-3,-1.7232135E-2,-6.223295E-3,6.928907E-3,2.0613046E-2,7.880768E-3,1.1422279E-2,-1.5667966E-2,-3.7096024E-2,-8.102609E-3],"split_indices":[14,162,162,44,153,0,14,92,15,41,3,128,192,0,0,0,0,0,0,0,0,0,0,0,0],"split_type":[0,0,0,0,0,0,0,0,0,0,0,0,0,0,0,0,0,0,0,0,0,0,0,0,0],"sum_hessian":[2.907429E3,2.3948604E3,5.125687E2,4.0852545E2,1.9863348E3,9.580959E1,4.1675916E2,1.9239388E2,2.1613159E2,6.910014E2,1.2953334E3,3.5610745E2,6.065171E1,9.66333E1,9.5760574E1,1.2328258E2,9.284901E1,3.6111066E2,3.2989078E2,4.4589316E2,8.494402E2,3.789444E1,3.18213E2,5.625615E1,4.3955607E0],"tree_param":{"num_deleted":"0","num_feature":"196","num_nodes":"25","size_leaf_vector":"1"}},{"base_weights":[1.8561017E-2,2.4766304E-1,-3.9228356E-1,-1.5105241E-2,5.1373386E-1,-6.240086E-1,4.639748E-2,-1.9970904E-1,3.2890916E-1,6.9345456E-1,4.004272E-1,-8.121523E-1,-2.2646189E-1,1.206465E-1,-1.0306615E0,-1.2304865E-2,1.7724229E-3,-6.0353824E-3,1.3818457E-2,2.5787624E-2,1.5204841E-2,-8.790036E-3,1.3504771E-2,-1.3545401E-2,-2.9003974E-2,-3.5754067E-4,-2.6721707E-2,8.2040895E-3,-1.0858307E-2,-3.5876125E-2,7.5250654E-3],"categories":[],"categories_nodes":[],"categories_segments":[],"categories_sizes":[],"default_left":[0,0,0,0,0,0,0,0,0,0,0,0,0,0,1,0,0,0,0,0,0,0,0,0,0,0,0,0,0,0,0],"id":39,"left_children":[1,3,5,7,9,11,13,15,17,19,21,23,25,27,29,-1,-1,-1,-1,-1,-1,-1,-1,-1,-1,-1,-1,-1,-1,-1,-1],"loss_changes":[2.742347E2,1.3095807E2,1.0619458E2,5.9885803E1,1.8287308E1,5.0556488E1,2.8815004E1,3.3561245E1,2.3126179E1,1.0122223E1,1.9954819E1,2.4794373E1,3.1317043E1,2.5112036E1,5.5441303E0,0E0,0E0,0E0,0E0,0E0,0E0,0E0,0E0,0E0,0E0,0E0,0E0,0E0,0E0,0E0,0E0],"parents":[2147483647,0,0,1,1,2,2,3,3,4,4,5,5,6,6,7,7,8,8,9,9,10,10,11,11,12,12,13,13,14,14],"right_children":[2,4,6,8,10,12,14,16,18,20,22,24,26,28,30,-1,-1,-1,-1,-1,-1,-1,-1,-1,-1,-1,-1,-1,-1,-1,-1],"split_conditions":[5.9319E4,1E0,1E0,1E0,1E0,1E0,5.4E1,1.4E1,1.0991123E1,7.17314E4,1.908368E4,6.60649E4,1.03823E5,2.1876083E-1,3E0,-1.2304865E-2,1.7724229E-3,-6.0353824E-3,1.3818457E-2,2.5787624E-2,1.5204841E-2,-8.790036E-3,1.3504771E-2,-1.3545401E-2,-2.9003974E-2,-3.5754067E-4,-2.6721707E-2,8.2040895E-3,-1.0858307E-2,-3.5876125E-2,7.5250654E-3],"split_indices":[55,51,49,66,6,66,41,41,61,46,46,46,55,179,137,0,0,0,0,0,0,0,0,0,0,0,0,0,0,0,0],"split_type":[0,0,0,0,0,0,0,0,0,0,0,0,0,0,0,0,0,0,0,0,0,0,0,0,0,0,0,0,0,0,0],"sum_hessian":[2.9112305E3,1.8697543E3,1.0414762E3,9.4084186E2,9.289124E2,6.815206E2,3.5995563E2,6.1314166E2,3.2770016E2,3.5567352E2,5.732389E2,4.6120758E2,2.2031303E2,3.3806757E2,2.1888073E1,3.3839227E2,2.7474942E2,6.461378E1,2.630864E2,1.8518E2,1.7049353E2,3.7450073E1,5.357888E2,1.4019281E2,3.2101477E2,1.678213E2,5.2491734E1,2.5763495E2,8.0432594E1,1.9655941E1,2.232132E0],"tree_param":{"num_deleted":"0","num_feature":"196","num_nodes":"31","size_leaf_vector":"1"}},{"base_weights":[-7.7297525E-3,-2.8764328E-1,3.100139E-1,-1.3538881E-2,-5.968064E-1,3.8149256E-1,-4.8523405E-1,-2.3996358E-1,2.514134E-1,-4.1257203E-1,-8.582705E-1,1.8303815E-1,5.879397E-1,2.4821053E-1,-8.10079E-1,-8.7055354E-4,-1.8724255E-2,3.3571708E-3,2.0419741E-2,-1.6597329E-2,-5.831196E-4,-1.5788388E-2,-3.012354E-2,9.3871765E-3,-7.3515177E-3,1.3168634E-2,2.1095064E-2,4.4871524E-2,-6.1316425E-3,-2.766545E-2,1.384051E-2],"categories":[],"categories_nodes":[],"categories_segments":[],"categories_sizes":[],"default_left":[0,0,0,0,0,0,0,0,0,0,0,0,0,0,1,0,0,0,0,0,0,0,0,0,0,0,0,0,0,0,0],"id":40,"left_children":[1,3,5,7,9,11,13,15,17,19,21,23,25,27,29,-1,-1,-1,-1,-1,-1,-1,-1,-1,-1,-1,-1,-1,-1,-1,-1],"loss_changes":[2.5831027E2,1.3071558E2,7.751436E1,4.9298855E1,3.413791E1,5.0815292E1,2.7198824E1,3.573363E1,2.232983E1,2.3504128E1,1.3298676E1,3.561661E1,9.763855E0,2.0644464E1,1.1829338E1,0E0,0E0,0E0,0E0,0E0,0E0,0E0,0E0,0E0,0E0,0E0,0E0,0E0,0E0,0E0,0E0],"parents":[2147483647,0,0,1,1,2,2,3,3,4,4,5,5,6,6,7,7,8,8,9,9,10,10,11,11,12,12,13,13,14,14],"right_children":[2,4,6,8,10,12,14,16,18,20,22,24,26,28,30,-1,-1,-1,-1,-1,-1,-1,-1,-1,-1,-1,-1,-1,-1,-1,-1],"split_conditions":[1E0,3.7E1,4.7E1,1.9E1,2E0,1E0,1E0,2E0,2.862069E0,1E1,1E0,1E0,1E0,2.2E1,2.011E3,-8.7055354E-4,-1.8724255E-2,3.3571708E-3,2.0419741E-2,-1.6597329E-2,-5.831196E-4,-1.5788388E-2,-3.012354E-2,9.3871765E-3,-7.3515177E-3,1.3168634E-2,2.1095064E-2,4.4871524E-2,-6.1316425E-3,-2.766545E-2,1.384051E-2],"split_indices":[51,14,14,41,24,37,6,24,139,28,6,161,24,96,18,0,0,0,0,0,0,0,0,0,0,0,0,0,0,0,0],"split_type":[0,0,0,0,0,0,0,0,0,0,0,0,0,0,0,0,0,0,0,0,0,0,0,0,0,0,0,0,0,0,0],"sum_hessian":[2.9017197E3,1.543204E3,1.3585156E3,8.1916425E2,7.240398E2,1.2474142E3,1.1110148E2,4.4230133E2,3.768629E2,4.2733865E2,2.967011E2,6.379411E2,6.094731E2,3.394876E1,7.715272E1,2.8681436E2,1.5548697E2,2.860773E2,9.078562E1,3.1396417E2,1.133745E2,9.2757034E1,2.0394408E2,4.90286E2,1.4765508E2,2.69032E2,3.404411E2,8.385605E0,2.5563154E1,7.144378E1,5.7089405E0],"tree_param":{"num_deleted":"0","num_feature":"196","num_nodes":"31","size_leaf_vector":"1"}},{"base_weights":[-1.1393685E-2,1.2721905E-1,-6.4483094E-1,-1.11060016E-1,3.9247403E-1,-3.8608348E-1,-9.396794E-1,-5.9864354E-1,5.9402683E-3,1.945643E-1,5.9537184E-1,-9.6822053E-1,-1.8432638E-1,-1.0418439E0,-4.612042E-1,-3.0160049E-2,-1.2932266E-2,-8.951687E-3,5.423361E-3,1.2595915E-2,-1.614703E-3,2.420151E-2,1.3965349E-2,9.198786E-3,-3.4791004E-2,7.9003716E-4,-1.8229662E-2,-3.234849E-2,1.0055634E-3,1.6727291E-2,-2.2442149E-2],"categories":[],"categories_nodes":[],"categories_segments":[],"categories_sizes":[],"default_left":[0,0,0,0,0,0,0,0,0,0,0,0,0,0,0,0,0,0,0,0,0,0,0,0,0,0,0,0,0,0,0],"id":41,"left_children":[1,3,5,7,9,11,13,15,17,19,21,23,25,27,29,-1,-1,-1,-1,-1,-1,-1,-1,-1,-1,-1,-1,-1,-1,-1,-1],"loss_changes":[2.512043E2,1.4839899E2,3.8363327E1,7.068632E1,4.4246735E1,3.1914768E1,1.0637711E1,1.5384361E1,5.3093334E1,3.1717466E1,1.4186295E1,1.785431E1,1.8638834E1,7.8829193E0,1.3684243E1,0E0,0E0,0E0,0E0,0E0,0E0,0E0,0E0,0E0,0E0,0E0,0E0,0E0,0E0,0E0,0E0],"parents":[2147483647,0,0,1,1,2,2,3,3,4,4,5,5,6,6,7,7,8,8,9,9,10,10,11,11,12,12,13,13,14,14],"right_children":[2,4,6,8,10,12,14,16,18,20,22,24,26,28,30,-1,-1,-1,-1,-1,-1,-1,-1,-1,-1,-1,-1,-1,-1,-1,-1],"split_conditions":[6.6332498E0,1E0,6.928203E0,4.1E-1,1E0,1E0,9.1E-1,1E0,1E0,3.4E1,1E0,1.0571488E-2,6.9E1,2.9E1,4.277035E4,-3.0160049E-2,-1.2932266E-2,-8.951687E-3,5.423361E-3,1.2595915E-2,-1.614703E-3,2.420151E-2,1.3965349E-2,9.198786E-3,-3.4791004E-2,7.9003716E-4,-1.8229662E-2,-3.234849E-2,1.0055634E-3,1.6727291E-2,-2.2442149E-2],"split_indices":[56,51,56,162,13,25,192,25,7,44,151,140,128,23,46,0,0,0,0,0,0,0,0,0,0,0,0,0,0,0,0],"split_type":[0,0,0,0,0,0,0,0,0,0,0,0,0,0,0,0,0,0,0,0,0,0,0,0,0,0,0,0,0,0,0],"sum_hessian":[2.8569058E3,2.3445042E3,5.1240173E2,1.2349325E3,1.1095715E3,2.7500882E2,2.373929E2,2.3837242E2,9.965601E2,5.6365814E2,5.459133E2,6.915375E1,2.0585507E2,1.9388765E2,4.350526E1,6.7270325E1,1.7110211E2,3.627269E2,6.338332E2,2.957384E2,2.6791977E2,2.0475716E2,3.4115616E2,8.727999E0,6.042575E1,1.3783939E2,6.8015686E1,1.8784E2,6.0476418E0,9.07626E0,3.4429E1],"tree_param":{"num_deleted":"0","num_feature":"196","num_nodes":"31","size_leaf_vector":"1"}},{"base_weights":[-5.236896E-3,2.9861888E-1,-2.6638377E-1,3.9065953E-2,4.5990497E-1,-1.5846595E-1,-8.6149997E-1,2.0762561E-1,-1.7027281E-1,4.8863178E-1,-7.369777E-1,-3.2797036E-1,1.5683621E-1,-1.0558752E0,-5.153848E-1,-3.523525E-2,7.881363E-3,1.3023921E-2,-9.518897E-3,1.9346617E-2,8.5376995E-3,2.5362091E-2,-3.592687E-2,-1.8040238E-2,-4.2576496E-3,1.108374E-3,1.868721E-2,-2.2056568E-2,-3.5064254E-2,-3.678128E-2,-3.3511652E-3],"categories":[],"categories_nodes":[],"categories_segments":[],"categories_sizes":[],"default_left":[0,0,0,0,0,0,0,0,0,0,0,0,0,0,0,0,0,0,0,0,0,0,0,0,0,0,0,0,0,0,0],"id":42,"left_children":[1,3,5,7,9,11,13,15,17,19,21,23,25,27,29,-1,-1,-1,-1,-1,-1,-1,-1,-1,-1,-1,-1,-1,-1,-1,-1],"loss_changes":[2.2613E2,5.496691E1,9.801097E1,1.7936548E1,2.830635E1,6.957837E1,1.4653687E1,2.1588127E1,2.0214478E1,2.477919E1,1.5497064E1,4.2708916E1,2.5197075E1,3.7250671E0,2.4541195E1,0E0,0E0,0E0,0E0,0E0,0E0,0E0,0E0,0E0,0E0,0E0,0E0,0E0,0E0,0E0,0E0],"parents":[2147483647,0,0,1,1,2,2,3,3,4,4,5,5,6,6,7,7,8,8,9,9,10,10,11,11,12,12,13,13,14,14],"right_children":[2,4,6,8,10,12,14,16,18,20,22,24,26,28,30,-1,-1,-1,-1,-1,-1,-1,-1,-1,-1,-1,-1,-1,-1,-1,-1],"split_conditions":[1E0,1E0,4.8E1,1E0,4.570176E6,1E0,1E0,1.5015E4,1E0,1E0,1.5024E4,1E0,3.0666667E-1,2E0,1.8262648E4,-3.523525E-2,7.881363E-3,1.3023921E-2,-9.518897E-3,1.9346617E-2,8.5376995E-3,2.5362091E-2,-3.592687E-2,-1.8040238E-2,-4.2576496E-3,1.108374E-3,1.868721E-2,-2.2056568E-2,-3.5064254E-2,-3.678128E-2,-3.3511652E-3],"split_indices":[166,13,14,65,47,51,51,9,21,65,9,7,194,10,22,0,0,0,0,0,0,0,0,0,0,0,0,0,0,0,0],"split_type":[0,0,0,0,0,0,0,0,0,0,0,0,0,0,0,0,0,0,0,0,0,0,0,0,0,0,0,0,0,0,0],"sum_hessian":[2.847209E3,1.3154381E3,1.5317709E3,5.0539645E2,8.100417E2,1.2984299E3,2.3334094E2,2.8067224E2,2.2472421E2,7.920335E2,1.8008163E1,8.449665E2,4.5346344E2,1.4720317E2,8.6137764E1,9.529731E0,2.7114252E2,4.309298E1,1.8163124E2,4.4661957E2,3.4541394E2,3.679166E0,1.4328999E1,3.406532E2,5.043133E2,3.622184E2,9.124504E1,4.1388214E1,1.0581496E2,3.0009134E1,5.612863E1],"tree_param":{"num_deleted":"0","num_feature":"196","num_nodes":"31","size_leaf_vector":"1"}},{"base_weights":[-3.6970526E-3,2.5724646E-1,-3.2937098E-1,6.872473E-2,5.537397E-1,-8.3207583E-1,-1.8316755E-1,-1.9161476E-1,2.5670117E-1,7.7948165E-1,4.0988344E-1,-1.0628058E0,-6.014028E-1,-5.278767E-1,1.5821485E-2,-3.5322748E-2,-3.6153425E-3,9.981801E-3,-5.9573157E-3,2.4407534E-2,-6.6142636E-3,2.0820722E-2,7.27421E-3,-3.3430446E-2,2.9635676E-3,-1.2017466E-2,-3.2836407E-2,1.0818999E-3,-2.136041E-2,-6.3609965E-3,5.489941E-3],"categories":[],"categories_nodes":[],"categories_segments":[],"categories_sizes":[],"default_left":[0,0,0,0,0,0,0,0,0,0,0,0,0,0,0,0,0,0,0,0,0,0,0,0,0,0,0,0,0,0,0],"id":43,"left_children":[1,3,5,7,9,11,13,15,17,19,21,23,25,27,29,-1,-1,-1,-1,-1,-1,-1,-1,-1,-1,-1,-1,-1,-1,-1,-1],"loss_changes":[2.3971162E2,8.7285126E1,9.177516E1,4.7013588E1,1.8999893E1,1.3725479E1,6.69836E1,2.7672611E1,1.9401413E1,8.309006E0,1.7346828E1,8.645309E0,1.3348667E1,3.724141E1,2.3587175E1,0E0,0E0,0E0,0E0,0E0,0E0,0E0,0E0,0E0,0E0,0E0,0E0,0E0,0E0,0E0,0E0],"parents":[2147483647,0,0,1,1,2,2,3,3,4,4,5,5,6,6,7,7,8,8,9,9,10,10,11,11,12,12,13,13,14,14],"right_children":[2,4,6,8,10,12,14,16,18,20,22,24,26,28,30,-1,-1,-1,-1,-1,-1,-1,-1,-1,-1,-1,-1,-1,-1,-1,-1],"split_conditions":[5.0653E4,1E0,1E0,1.9E1,1E0,6E0,5.6E-1,5.183072E8,8.5016E4,7.9208717E0,1E0,1E2,4.7E1,6.8921E4,6E0,-3.5322748E-2,-3.6153425E-3,9.981801E-3,-5.9573157E-3,2.4407534E-2,-6.6142636E-3,2.0820722E-2,7.27421E-3,-3.3430446E-2,2.9635676E-3,-1.2017466E-2,-3.2836407E-2,1.0818999E-3,-2.136041E-2,-6.3609965E-3,5.489941E-3],"split_indices":[55,49,68,44,152,44,192,177,9,178,3,128,44,55,44,0,0,0,0,0,0,0,0,0,0,0,0,0,0,0,0],"split_type":[0,0,0,0,0,0,0,0,0,0,0,0,0,0,0,0,0,0,0,0,0,0,0,0,0,0,0,0,0,0,0],"sum_hessian":[2.8178577E3,1.5641007E3,1.2537568E3,9.57685E2,6.064157E2,2.806778E2,9.73079E2,4.0095193E2,5.567331E2,2.3304665E2,3.7336908E2,1.3736879E2,1.4330902E2,3.5582663E2,6.172524E2,2.5371296E1,3.7558066E2,4.779779E2,7.875516E1,2.2592458E2,7.122067E0,1.3643507E2,2.3693402E2,1.3184999E2,5.518806E0,1.03868774E2,3.9440243E1,8.73934E1,2.6843326E2,2.603912E2,3.5686115E2],"tree_param":{"num_deleted":"0","num_feature":"196","num_nodes":"31","size_leaf_vector":"1"}},{"base_weights":[2.6737982E-3,3.0764905E-1,-2.5886095E-1,7.403497E-2,4.6318054E-1,-4.3161252E-1,7.8603946E-2,1.2861516E-1,-8.853245E-1,2.1277598E-1,5.918012E-1,-6.29938E-2,-6.5859646E-1,2.832166E-1,-2.9880247E-1,1.2777342E-2,-1.0650889E-3,-3.833785E-2,2.4653831E-2,-3.2481214E-3,1.1966958E-2,1.1988342E-2,2.2115033E-2,3.1103063E-3,-2.2506298E-2,-2.6642146E-2,-8.633286E-3,-2.4327345E-4,1.3167525E-2,-1.294294E-2,2.00665E-2],"categories":[],"categories_nodes":[],"categories_segments":[],"categories_sizes":[],"default_left":[0,0,0,0,0,0,0,0,0,0,0,0,0,0,0,0,0,0,0,0,0,0,0,0,0,0,0,0,0,0,0],"id":44,"left_children":[1,3,5,7,9,11,13,15,17,19,21,23,25,27,29,-1,-1,-1,-1,-1,-1,-1,-1,-1,-1,-1,-1,-1,-1,-1,-1],"loss_changes":[2.2480751E2,4.7104485E1,8.856165E1,2.7307045E1,2.4756866E1,8.375395E1,3.981141E1,2.4295399E1,2.0264013E1,1.6107895E1,1.3658768E1,4.4283615E1,5.210956E1,1.5275496E1,2.3504007E1,0E0,0E0,0E0,0E0,0E0,0E0,0E0,0E0,0E0,0E0,0E0,0E0,0E0,0E0,0E0,0E0],"parents":[2147483647,0,0,1,1,2,2,3,3,4,4,5,5,6,6,7,7,8,8,9,9,10,10,11,11,12,12,13,13,14,14],"right_children":[2,4,6,8,10,12,14,16,18,20,22,24,26,28,30,